A4 -0.141289 -0.083528 -0.248581 0.076922 -0.184930 -0.006650 0.107531 -0.000030 -0.050974 0.185645 -0.007403 0.009473 0.049771 -0.047519 -0.009646 -0.092152 -0.032055 -0.069162 -0.213060 -0.153993 0.113078 0.043015 0.453142 -0.032481 0.142796 -0.169855 -0.167587 0.127679 -0.089657 0.279004 0.068506 -0.037731 -0.286369 0.017673 0.060821 0.256975 -0.155750 0.138659 0.050981 -0.054968 0.127541 -0.274149 -0.172189 0.035114 0.164013 0.096490 0.203987 0.094736 -0.017459 -0.008463 -0.008577 0.091161 0.222438 0.155399 -0.106294 0.119605 -0.046904 -0.134064 0.009948 -0.287177 -0.058770 0.017992 -0.140824 -0.184419 0.237059 0.004824 -0.283342 -0.223033 -0.079669 0.205649 0.118029 0.179219 -0.049337 -0.054774 0.147905 -0.035465 -0.082941 0.015946 -0.035609 0.168238 0.014051 0.107489 -0.134989 0.270456 0.201985 -0.121341 0.203679 0.089259 -0.310881 0.045091 -0.033270 0.204336 0.058067 0.279082 0.036934 0.129968 -0.038699 -0.019438 0.028839 -0.132945 -0.047608 -0.058187 -0.136708 0.187537 0.213934 -0.149416 0.023719 -0.092732 0.091440 -0.181252 0.286848 0.091249 0.023380 -0.263288 0.147569 -0.264220 0.161975 0.009007 -0.216971 -0.343804 0.195484 0.060257 0.103914 -0.100745 -0.091863 -0.040838 -0.201917 0.024258 0.025739 -0.116525 0.029338 -0.010100 -0.068113 -0.183533 -0.212565 -0.045912 -0.038222 -0.232679 -0.077421 -0.093060 0.141148 -0.160352 0.134427 0.098004 -0.254399 0.064370 0.026420 0.206386 0.192053 0.168797 -0.246091 -0.015720 -0.004695 0.033698 -0.047403 -0.148075 0.060587 0.049164 -0.129410 -0.161122 -0.014962 0.112340 0.093977 -0.110624 -0.101557 0.100224 -0.087959 -0.101357 -0.336533 -0.105642 0.044028 0.036803 -0.045190 -0.053130 -0.047983 -0.057287 -0.118689 -0.096301 0.016031 0.077512 -0.292848 0.354521 -0.113726 0.074008 -0.057022 0.182766 0.019259 0.010697 0.350527 0.185203 -0.148509 0.157350 -0.102042 0.075383 0.129732 0.334851 -0.130751 -0.196278 -0.004504 -0.206645 -0.024466 -0.233492 -0.154522 0.311425 0.110456 -0.016584 0.180026 0.037303 0.113053 -0.207000 -0.119558 -0.073834 0.160538 0.107402 -0.075176 -0.032273 0.140084 -0.002748 0.105381 -0.224145 -0.244022 -0.123447 -0.052482 0.055941 0.119038 -0.229212 0.158571 -0.043319 0.086015 -0.123309 -0.419159 0.316793 0.100493 -0.139659 -0.184078 -0.335365 0.128043 -0.004122 -0.031769 -0.067794 -0.357980 0.033983 0.057261 0.021148 0.474184 0.081035 0.005656 -0.074358 -0.252424 -0.064845 -0.267157 0.377853 -0.099960 0.020335 0.071003 0.047345 -0.225392 -0.133697 -0.144493 -0.009340 0.098392 0.319431 0.302298 0.038050 0.025790 -0.112980 -0.067567 0.024147 -0.056090 -0.123127 0.051380 0.093353 -0.308324 -0.065523 -0.162490 -0.215151 -0.053622 -0.047162 -0.245697 0.056052 0.099613 -0.171797 0.226929 -0.084009 0.036771 0.058541 0.126706 -0.253588 0.135717 -0.052510 -0.330627 0.287582 0.156656 0.114649 0.207935 0.205183 0.050917 0.049655 -0.057650 0.051340
G4 -0.082029 -0.031971 -0.253979 -0.051120 -0.210619 -0.007426 0.064298 0.012659 0.090073 0.189791 -0.005142 -0.045297 0.141624 -0.036132 0.045945 -0.085780 -0.069908 -0.005572 -0.202362 -0.072695 0.036538 0.097176 0.457330 -0.016317 0.121835 -0.022788 -0.130886 0.087696 -0.083585 0.352764 0.013518 -0.057523 -0.288376 0.056034 0.160132 0.259261 -0.189600 -0.012633 0.013135 -0.063050 -0.019503 -0.162702 -0.252425 0.093613 0.066143 0.019306 0.142845 0.016040 0.016228 -0.068854 -0.056555 0.068504 0.145959 0.139242 -0.169441 0.083906 -0.212480 -0.040899 0.075347 -0.139162 -0.054586 0.014227 -0.115559 -0.149308 0.129948 0.018962 -0.351636 -0.091694 -0.001672 0.051738 0.135358 0.171470 -0.035340 0.013842 0.050194 -0.073547 -0.106699 -0.051587 -0.058756 0.270441 -0.059070 -0.053813 -0.131062 0.179812 0.197541 -0.015008 0.172586 0.082060 -0.210864 0.010056 0.055695 0.116022 0.078748 0.034172 -0.037802 0.037008 -0.194390 -0.042825 -0.020960 -0.147525 -0.127225 0.131652 0.039863 0.113297 0.082197 -0.150546 0.017255 -0.158059 0.036322 -0.109813 0.161194 0.122816 -0.121450 -0.121578 0.134373 -0.211293 0.063906 -0.039995 -0.140587 -0.301879 0.156273 0.066237 0.153930 -0.154992 0.029621 -0.027742 -0.161013 0.043205 -0.139355 -0.186962 0.084354 0.049873 0.070705 -0.231870 -0.213486 -0.065642 0.123791 -0.149706 -0.061152 -0.028326 0.118363 -0.332752 0.124615 0.106414 -0.142705 0.050036 0.063391 0.096904 0.134933 0.024605 -0.131787 -0.067594 -0.003768 0.058272 0.008082 -0.373885 -0.062540 -0.077918 -0.189396 -0.209277 -0.124501 0.184748 0.097076 -0.084636 -0.080738 0.082805 -0.000946 0.046088 -0.302677 0.018841 -0.043311 0.109825 -0.002896 -0.058635 -0.056003 0.095328 -0.028397 -0.114526 -0.188977 0.061698 -0.298482 0.259030 -0.066232 0.194454 -0.112331 0.257115 0.000183 -0.130191 0.213668 0.192426 -0.109928 0.052953 -0.104572 -0.055464 0.147908 0.233543 -0.159060 -0.154906 -0.020750 -0.172999 -0.018040 -0.262563 -0.168548 0.168169 0.052056 0.074779 0.119611 0.092625 -0.145768 -0.159408 -0.222238 -0.091816 -0.023584 0.049875 -0.083447 -0.006216 0.050328 0.010397 0.038372 -0.292389 -0.190878 -0.108347 -0.037255 -0.066550 0.051758 -0.113754 0.061346 -0.232004 0.025515 -0.130671 -0.324550 0.282279 0.083365 -0.063470 -0.130323 -0.236868 0.122480 0.038149 -0.252287 -0.020963 -0.231815 0.129440 0.021913 0.183927 0.490953 0.037471 -0.047517 -0.187249 -0.216271 -0.183110 -0.169220 0.210729 -0.027812 -0.001531 0.054969 0.063813 -0.501417 -0.182254 0.054011 0.100374 -0.101999 0.187680 0.255484 -0.021767 -0.017202 -0.033374 -0.058355 -0.082090 -0.120934 -0.177513 0.013321 0.136545 -0.230767 -0.025084 -0.056569 -0.300815 0.018130 -0.136178 -0.132988 0.049164 -0.082379 -0.064225 0.079272 -0.017645 -0.173674 -0.021701 0.076239 -0.126473 0.094923 -0.032579 -0.307801 0.110171 -0.060241 0.165784 0.118941 0.193224 -0.084197 0.057791 0.063635 -0.105136
D4 -0.147633 -0.170890 -0.236743 -0.056278 -0.162120 -0.135858 0.092503 -0.037963 -0.029169 0.101990 0.063215 -0.019300 0.062926 0.058366 0.023157 -0.094004 -0.001643 0.051895 -0.162550 -0.144854 -0.101017 0.132425 0.322545 -0.048926 0.158108 -0.052327 -0.260995 0.106291 -0.068553 0.235368 0.015404 0.002524 -0.338888 -0.056234 0.185744 0.175736 -0.204394 0.137992 0.128218 0.008529 0.098020 -0.022278 -0.179844 -0.004656 0.025065 0.128744 0.175482 -0.082202 0.085300 -0.030374 -0.068283 0.156740 0.133626 0.211245 0.020435 0.238446 -0.013971 0.104466 0.102122 -0.167625 -0.111209 -0.100199 -0.137294 -0.008133 0.077541 -0.041016 -0.244730 -0.162020 0.125158 0.124233 0.068849 0.175353 -0.030926 0.041439 -0.011566 -0.070488 0.078332 0.025685 0.022385 -0.038918 0.122380 -0.022909 -0.173141 0.076727 0.299196 -0.067618 0.093944 -0.003980 -0.202072 0.010722 -0.032810 0.057751 -0.042301 0.144760 -0.118769 0.199695 -0.149246 -0.005824 -0.048888 0.035210 -0.095221 0.199801 -0.043845 -0.041406 0.229873 -0.076260 0.020526 -0.177770 0.082422 -0.088788 0.104017 0.020643 -0.196952 -0.190634 0.230624 -0.158653 0.199482 0.067310 -0.049758 -0.193763 0.132382 0.039120 0.218582 -0.254907 -0.027767 -0.096350 -0.155206 -0.133787 0.138148 -0.043766 0.139463 -0.012675 0.157360 -0.302513 -0.214375 -0.084089 -0.001162 -0.135139 -0.081757 0.048793 0.002209 -0.323132 0.095010 0.077078 -0.185585 0.038939 0.021945 -0.130723 0.156777 0.089311 -0.130461 0.070030 -0.046098 0.081278 -0.023249 -0.108045 0.175028 -0.002656 -0.160642 -0.051363 -0.032619 0.187385 0.085936 -0.018918 -0.195150 0.106380 0.104127 -0.089042 -0.232676 0.126262 -0.025288 0.135921 0.062826 0.067437 -0.192704 0.122357 -0.273527 -0.142705 -0.075046 0.155787 -0.337607 0.230164 0.030522 0.013851 -0.194237 0.120790 0.128928 -0.003308 0.131397 0.124290 0.003130 0.053593 -0.177656 -0.093316 0.234345 0.428970 -0.040971 -0.106731 -0.017578 -0.223679 -0.171087 -0.055856 -0.095728 0.180056 0.117845 0.096107 0.226458 0.127100 -0.041650 -0.210112 -0.196309 0.082680 0.131411 -0.054804 -0.094695 0.001035 -0.070307 0.091632 0.120136 -0.151286 -0.169893 -0.052867 0.074549 -0.058565 0.084308 -0.208274 -0.030266 -0.085126 0.088347 -0.081299 -0.190073 0.134698 0.108213 -0.009527 -0.098209 -0.156374 0.211790 0.071378 -0.343777 0.080826 -0.122468 0.037542 -0.005888 0.075430 0.487960 0.032369 -0.041151 -0.185070 -0.108453 -0.050790 -0.178942 0.107653 -0.195381 0.109420 0.075600 0.089563 -0.475803 -0.138952 0.101330 0.091847 0.052612 0.086139 0.175308 0.026954 -0.082413 -0.041960 0.036574 -0.085646 0.055019 -0.156223 0.004354 -0.039961 -0.314757 -0.005288 -0.102059 -0.250047 0.011876 -0.125146 -0.134230 0.218008 -0.070623 -0.088938 0.019452 0.059473 -0.091716 -0.017029 -0.012153 -0.177346 0.020704 0.024000 -0.287515 0.179079 -0.042449 0.133804 0.136316 0.215592 0.083782 -0.009409 0.031423 -0.011049
D5 -0.199481 -0.023930 -0.120760 0.084923 -0.155212 -0.053066 0.081297 0.079411 -0.005903 -0.039501 0.042052 0.124871 -0.017567 -0.166325 -0.090046 -0.096520 0.067903 -0.214555 -0.123796 0.002924 0.283014 -0.021615 0.221225 0.109640 0.206208 -0.222905 -0.217684 0.137458 -0.073044 0.204921 -0.031077 -0.110397 -0.204826 0.006948 -0.097370 0.433928 -0.229870 0.116975 -0.015228 0.007522 0.202320 -0.177243 -0.030711 0.030202 0.085642 0.198625 0.124429 0.126981 -0.004884 0.020008 -0.089797 0.128126 0.158315 0.239235 -0.039804 0.195896 -0.068219 -0.253772 -0.044009 -0.392412 -0.069117 0.127345 -0.014415 -0.265765 0.196159 0.136178 -0.106717 -0.299432 0.027337 0.217575 0.046015 0.148272 0.006650 -0.070195 0.088004 -0.016320 -0.014931 0.071945 -0.032623 0.027198 -0.077133 0.285136 -0.202472 0.255334 0.162718 -0.222210 0.158669 -0.027865 -0.135939 0.024669 -0.020160 0.187064 -0.042439 0.389427 0.050417 0.190768 0.106169 -0.040976 0.087417 0.028436 0.086287 -0.058965 -0.162653 0.215202 0.147830 0.005994 0.169829 -0.045364 0.198084 -0.231531 0.296188 0.000575 0.050840 -0.220979 0.178582 -0.165495 0.202452 0.047772 -0.230974 -0.246865 0.143837 -0.131303 -0.119600 -0.029830 -0.233793 0.012349 -0.180825 -0.103185 0.081186 -0.065430 0.049318 0.050263 -0.042450 -0.115510 -0.069741 -0.128819 -0.116093 -0.352643 -0.053351 -0.199474 0.191806 -0.104035 0.011855 0.179728 -0.206523 0.001954 -0.025899 0.060943 0.193981 0.237783 -0.275474 0.096486 0.016007 -0.028477 -0.137370 -0.038439 0.079227 0.168219 0.013635 -0.017469 0.113238 0.015276 0.112189 -0.229239 -0.050116 0.063953 -0.131495 -0.361932 -0.099994 -0.189425 -0.041657 0.087227 -0.016282 -0.099559 -0.117717 -0.054808 -0.104504 -0.110312 0.100636 0.017809 -0.287467 0.134064 -0.133449 -0.096382 0.079942 0.089342 0.063403 0.173809 0.413657 0.248609 -0.083246 0.175379 -0.104371 0.181323 0.016285 0.446864 -0.029883 -0.426103 0.063651 -0.024764 -0.005616 -0.178081 -0.050183 0.206555 0.083828 0.010218 0.164797 0.099592 0.242210 -0.276862 -0.211621 0.096648 0.337925 0.144156 0.043500 -0.118289 0.254884 -0.068565 0.203364 -0.078192 -0.160807 -0.074279 -0.125770 0.196469 0.131699 -0.166977 0.118741 0.059723 0.097912 -0.237456 -0.284668 0.179572 0.068018 -0.237173 -0.062049 -0.180022 0.092066 -0.209999 -0.056402 -0.055891 -0.296588 -0.041894 -0.031773 -0.174032 0.295012 0.137731 0.028439 -0.129604 -0.294040 0.080465 -0.138985 0.366176 -0.049934 0.139455 -0.068913 0.032460 0.043733 0.018965 -0.295672 0.125848 0.036080 0.290098 0.395807 0.059504 -0.051384 -0.126573 -0.111549 0.051235 -0.000534 -0.105605 -0.027227 0.112908 -0.154710 -0.020528 -0.326149 -0.135197 -0.103948 -0.192842 -0.146732 0.124340 0.150416 -0.107235 0.221329 -0.102692 0.298024 0.151903 0.297375 -0.338342 0.055653 -0.010688 -0.293353 0.405076 0.151651 -0.055366 0.234940 0.171801 0.145196 0.008852 -0.051915 0.061342
E4 -0.191002 -0.183830 -0.165243 0.105692 -0.112241 -0.146880 0.144622 -0.173596 -0.057477 0.256728 -0.002369 -0.056346 -0.027438 0.085821 0.011120 -0.037844 -0.081675 0.005148 -0.190767 -0.251025 -0.086943 0.003678 0.429470 0.001377 0.169203 -0.141740 -0.195728 0.228461 -0.082010 0.373595 -0.018017 0.034806 -0.186182 -0.173670 0.097138 0.177480 -0.023608 0.242750 0.149681 0.001100 0.214991 -0.159073 -0.286095 -0.088592 0.227748 0.047129 0.204319 -0.087922 0.044075 -0.113606 -0.052251 0.028235 0.098957 0.154164 -0.107969 0.204442 0.018445 0.049231 0.093794 -0.246783 -0.124745 -0.119829 -0.096841 0.006546 0.160458 -0.094581 -0.330527 -0.192658 -0.083769 0.110844 0.145964 0.168992 0.032308 0.070805 0.008386 0.007601 -0.065391 -0.055417 0.059584 0.196089 0.153266 -0.002547 -0.241578 0.307331 0.297594 -0.090508 0.102668 0.104353 -0.327542 0.132853 -0.114386 0.283873 0.042005 0.355413 -0.051812 0.247579 -0.053818 -0.003094 0.051060 -0.055457 -0.079302 -0.030861 -0.150737 0.069473 0.204957 -0.163259 0.039334 -0.153500 0.104977 -0.168822 0.206393 0.032011 -0.072315 -0.328616 0.233791 -0.282748 0.151972 0.115518 -0.007791 -0.243114 0.235351 0.111214 0.329274 -0.210839 -0.053093 -0.087282 -0.014595 -0.146489 0.126837 -0.038094 0.041610 0.002996 0.051043 -0.256100 -0.233660 -0.045846 -0.183902 -0.150706 0.052434 0.105605 0.044936 -0.223457 0.194785 0.006050 -0.255898 0.034205 0.064650 0.023708 0.082883 0.047012 -0.134333 -0.026150 -0.057430 0.058322 -0.107871 -0.037401 0.161997 0.017842 -0.160586 -0.101462 -0.030493 0.156348 0.039700 0.015001 -0.165286 0.017771 -0.035510 -0.071820 -0.290961 0.005128 0.039160 0.014765 0.064848 0.130271 -0.145237 0.011019 -0.106034 -0.066464 0.008819 0.162546 -0.277617 0.320971 -0.021188 0.136840 -0.044014 0.035342 0.004580 0.012128 0.251700 0.020952 -0.084479 0.162762 -0.036308 0.069687 0.218431 0.226833 0.042544 0.067230 -0.101700 -0.283807 -0.113405 -0.057842 -0.264766 0.312703 0.133518 0.029263 0.078959 0.075683 0.068766 -0.040076 0.026365 -0.073622 0.204864 0.052113 -0.059230 -0.042405 -0.095155 0.023054 0.019515 -0.212189 -0.184602 -0.117171 0.124662 -0.026137 0.145351 -0.241337 -0.047523 -0.039720 -0.064893 -0.075988 -0.422683 0.326856 0.078829 -0.050173 -0.156376 -0.288856 0.222579 0.122023 -0.091778 0.105370 -0.150064 0.018889 0.209960 0.131950 0.393556 0.059160 0.003146 -0.032446 -0.080756 -0.022958 -0.304269 0.187606 -0.269124 0.010885 0.190272 0.136424 -0.282149 -0.130458 0.001332 -0.058396 0.234258 0.216358 0.092483 -0.015413 0.029215 -0.096853 -0.074796 0.103559 0.077879 -0.229000 -0.000961 0.047619 -0.380608 -0.161903 -0.163100 -0.156758 0.050930 0.031819 -0.221783 0.104000 0.075135 -0.236835 0.090085 -0.028750 -0.105820 0.132650 -0.037763 -0.321852 0.151028 0.100018 -0.273937 0.123552 -0.108654 0.069077 0.149556 0.242614 0.113132 0.006566 -0.088175 0.150650
A3 -0.093142 -0.172288 -0.304656 -0.063069 -0.115817 -0.140696 0.155910 -0.093824 -0.053134 0.075918 0.139544 0.059721 -0.009742 0.158417 0.031777 -0.029924 -0.005714 -0.022203 -0.214348 -0.142515 -0.070376 0.157384 0.302752 -0.098683 0.159962 -0.028275 -0.285359 0.108554 -0.062153 0.202781 -0.007440 0.038865 -0.233766 -0.102272 0.240199 0.119804 -0.078022 0.231583 0.210952 -0.004699 0.188590 -0.062735 -0.186416 -0.091611 0.029733 0.153468 0.204941 -0.090984 0.172316 -0.062154 -0.039765 0.188807 0.113586 0.275574 -0.001483 0.307075 0.090442 0.138061 0.047918 -0.243467 -0.172368 -0.208463 -0.140430 0.050448 0.156300 -0.133462 -0.229867 -0.175050 0.104975 0.113158 -0.002252 0.140337 -0.049897 -0.078414 0.004093 -0.017075 0.027016 0.020321 0.005059 -0.113264 0.234109 0.033118 -0.188594 0.038520 0.273331 -0.071527 0.133870 0.053625 -0.180737 0.074911 -0.062103 0.075283 0.007580 0.194554 -0.159859 0.224194 -0.075671 0.073132 -0.070420 0.101453 -0.045562 0.104258 -0.082877 -0.085396 0.244367 -0.055206 -0.028967 -0.094717 0.044726 -0.086485 0.105717 0.018321 -0.153534 -0.253079 0.251157 -0.151333 0.295641 0.096592 -0.036043 -0.222402 0.263399 0.088448 0.243818 -0.244879 -0.081088 -0.034854 -0.218596 -0.175003 0.256642 0.041626 0.183455 -0.063992 0.163354 -0.296715 -0.210029 -0.063292 -0.104131 -0.118098 -0.126028 0.063277 -0.056991 -0.249278 0.156448 0.076323 -0.166678 0.092371 0.027626 -0.117978 0.159622 0.094752 -0.154487 0.093771 -0.085130 0.085161 -0.112414 0.035563 0.194194 0.082282 -0.106326 -0.018371 0.045006 0.225958 0.107978 -0.046832 -0.224197 0.101774 0.037576 -0.234441 -0.300187 0.061858 0.107451 0.044299 0.032551 0.021574 -0.179888 0.078210 -0.300253 -0.138187 0.018252 0.115839 -0.265538 0.206020 0.038959 0.012585 -0.208116 0.143046 0.099652 0.039127 0.143332 0.023659 -0.010944 0.157381 -0.229985 -0.162639 0.219842 0.452090 -0.037844 -0.033933 0.036695 -0.335548 -0.199733 0.057164 -0.074144 0.195980 0.095370 0.118010 0.193473 0.139073 0.065223 -0.209139 -0.201432 0.077211 0.159385 -0.062129 -0.182650 -0.019883 -0.068768 0.087165 0.035654 -0.090788 -0.337827 0.039564 0.163582 -0.030433 0.104889 -0.240352 0.074358 -0.056532 0.124844 -0.008484 -0.239416 0.163323 0.191913 0.029038 -0.176045 -0.145619 0.246132 0.204856 -0.314859 0.028197 -0.136332 -0.004796 -0.019991 0.083687 0.400721 0.025400 -0.025737 -0.136255 -0.196509 -0.016915 -0.293159 0.229247 -0.277889 0.110150 0.119830 0.035803 -0.388067 -0.047122 0.094150 0.094978 0.040809 0.096852 0.221929 -0.000064 0.008827 0.070633 0.013850 -0.040644 0.104893 -0.135173 0.105332 0.034333 -0.308015 -0.023645 -0.131474 -0.186296 0.063770 -0.011976 -0.132795 0.248262 0.083394 -0.176803 0.107549 0.041723 -0.048480 0.069882 -0.041436 -0.245403 0.029813 -0.031742 -0.294150 0.162607 -0.081806 0.186035 0.076366 0.210512 0.091350 0.020449 -0.028216 0.083024
C5 -0.122353 0.184011 -0.297243 0.084709 -0.247813 0.003419 0.186497 0.096010 0.092113 -0.013462 0.130883 -0.003568 0.097692 -0.236432 -0.053286 -0.157002 0.001118 -0.156046 -0.139925 0.109276 0.353518 -0.047982 0.289198 -0.087567 0.114632 -0.221338 -0.186770 0.093973 -0.021630 0.360025 -0.180292 -0.150952 -0.355570 0.146706 -0.055210 0.315025 -0.404493 -0.106893 0.005018 -0.022261 -0.084586 -0.130013 -0.023735 0.199454 -0.064295 0.001365 -0.042758 0.218520 0.101007 0.057332 -0.099777 0.153048 0.216191 0.176094 -0.177471 0.029184 -0.253837 -0.322211 -0.024389 -0.233627 -0.184549 0.208394 -0.058042 -0.427138 0.127679 0.098687 -0.325481 -0.092731 -0.114342 -0.021465 0.233460 0.181839 0.046213 0.080995 -0.059725 0.006322 0.148001 -0.128216 -0.130961 0.215168 -0.235033 0.017643 -0.377683 0.277165 -0.037934 -0.119529 0.198372 0.020498 -0.223047 -0.161264 0.033110 0.028204 0.123952 0.196978 -0.025190 0.177621 -0.044834 0.178452 0.284788 -0.065545 -0.079344 0.078070 -0.008573 0.307138 -0.150526 -0.027613 0.278244 -0.050491 0.239080 -0.095425 0.287461 0.142542 0.020039 -0.017785 0.104302 -0.263243 0.081760 -0.071630 -0.356704 -0.144237 0.237409 -0.017429 0.020350 -0.111879 -0.197197 0.021224 -0.167804 0.143191 -0.136846 0.023141 0.141235 0.179452 0.178211 -0.208286 0.093200 -0.076526 -0.001465 -0.487418 0.103321 -0.243110 0.221679 -0.298378 0.167184 0.152700 -0.074144 -0.192766 0.191411 0.100247 0.019567 0.119009 -0.368372 -0.044000 -0.133678 -0.137633 -0.169679 -0.331502 -0.033798 0.155422 0.007765 -0.108119 -0.038215 0.030632 0.118483 -0.223159 -0.099380 0.205078 -0.163917 -0.164603 -0.182147 -0.258817 -0.166898 0.004292 0.000949 -0.206259 0.063340 0.046288 -0.000517 -0.087687 0.014055 -0.235699 -0.465959 0.262996 -0.094986 0.129254 0.041605 0.416775 -0.181521 0.137696 0.463711 0.377455 -0.244022 0.166777 -0.314460 -0.039178 0.093716 0.256933 -0.121884 -0.652396 0.100689 -0.068545 -0.096244 -0.376835 0.008719 0.222705 0.193074 0.069625 0.191864 0.201446 0.128885 -0.304836 -0.514313 0.173160 0.278673 0.053925 0.095606 -0.129719 0.212147 -0.133306 0.050047 -0.177021 -0.116775 -0.205524 -0.209140 0.153439 0.049682 0.105204 0.129935 -0.143947 0.035950 -0.251466 -0.281059 0.325728 -0.019371 -0.163657 -0.132691 -0.291465 0.059601 -0.254407 -0.134477 -0.338055 -0.328349 0.065752 -0.107091 0.046220 0.308424 -0.012536 -0.074976 -0.268603 -0.319895 -0.080265 -0.154261 0.236864 0.163866 0.094694 -0.104187 0.128550 -0.015226 -0.112174 -0.116607 0.301008 -0.172823 0.419412 0.372182 0.136135 -0.057368 0.021070 -0.422389 0.145283 -0.067556 -0.220298 0.013014 0.237664 -0.105145 0.043407 -0.327826 -0.075367 -0.003817 -0.289453 -0.196521 0.144137 0.133324 -0.098759 0.220402 -0.156407 0.186661 -0.043403 0.330714 -0.248734 0.224726 0.014604 -0.301736 0.341618 0.218492 0.031604 0.117774 0.212082 -0.125342 0.111952 -0.030076 -0.172948
E5 -0.247840 -0.065719 0.028732 0.147936 -0.048349 -0.083117 0.073889 -0.035341 -0.007232 -0.021019 0.000021 0.155858 -0.130391 -0.111353 -0.097539 -0.031044 0.044654 -0.282032 -0.062069 0.074469 0.257563 -0.141993 0.144841 0.217979 0.273848 -0.178691 -0.142905 0.215524 -0.082071 0.244682 -0.107850 -0.090360 0.019216 -0.128240 -0.078433 0.494780 -0.089415 0.192200 -0.010396 0.033181 0.348657 -0.185850 -0.101101 -0.104296 0.179338 0.186670 0.132245 0.049926 0.024333 -0.107443 -0.146691 0.017543 -0.018489 0.255172 -0.133865 0.264813 -0.098870 -0.256703 -0.117070 -0.463740 -0.151607 0.086738 0.102781 -0.180780 0.221663 0.154307 -0.049031 -0.377786 0.036746 0.180563 0.021112 0.107015 0.030447 -0.016053 0.035419 0.022912 -0.165605 0.026808 0.039270 0.171908 -0.023231 0.309512 -0.217167 0.393765 0.189998 -0.302037 0.178342 0.023965 -0.109814 0.110622 -0.056672 0.351476 -0.053220 0.536705 0.025059 0.232774 0.204764 -0.090522 0.108324 0.081968 0.135267 -0.230557 -0.211382 0.219801 0.092197 0.012306 0.196709 -0.029690 0.275412 -0.385458 0.376787 -0.073019 0.093689 -0.261608 0.276483 -0.145487 0.194609 0.142510 -0.062470 -0.271239 0.182389 -0.187939 -0.095675 0.034576 -0.262055 -0.017313 -0.022539 -0.244442 0.099857 -0.052698 0.018628 0.116897 -0.076931 -0.118775 -0.030937 -0.130653 -0.274355 -0.296548 0.033743 -0.154958 0.209648 -0.022444 -0.004415 0.213775 -0.258961 0.043231 -0.052335 0.027564 0.107979 0.159097 -0.223949 0.054025 0.057071 -0.002995 -0.189990 0.012865 0.045899 0.227608 0.114395 -0.040991 0.209326 -0.042832 0.085172 -0.255165 0.047523 -0.076276 -0.203165 -0.479471 0.044182 -0.284526 0.008613 0.067047 0.042517 0.011434 -0.220043 -0.135462 0.038327 -0.076289 0.152249 0.043605 -0.106057 0.059534 -0.146612 -0.067089 0.192833 -0.035156 0.015804 0.179365 0.453358 0.137387 -0.121051 0.324910 0.018483 0.333703 -0.015804 0.308763 0.107685 -0.220006 0.037145 0.003021 0.084126 -0.022958 -0.170798 0.218761 0.033643 -0.011642 0.032548 0.109639 0.265342 -0.108687 -0.067262 0.024132 0.433656 0.285467 0.076765 -0.204247 0.221142 -0.173501 0.098090 -0.102819 -0.150025 -0.047105 -0.050089 0.199101 0.233213 -0.092794 0.051597 0.111838 -0.040265 -0.259969 -0.400867 0.267157 0.076104 -0.230627 -0.035391 -0.125725 0.118520 -0.194410 0.035147 0.026885 -0.207493 -0.054547 0.099479 -0.221113 0.084149 0.164217 0.014166 -0.059731 -0.337368 0.213095 -0.165141 0.447876 -0.156648 0.082341 -0.039427 0.078452 0.206706 0.114312 -0.374112 0.079376 0.130957 0.238160 0.296600 -0.010357 0.037639 -0.171534 -0.072748 0.199583 0.061901 -0.124215 -0.059609 0.185961 -0.087747 -0.080061 -0.475882 -0.029543 -0.097822 -0.073721 -0.107297 0.097708 0.248820 -0.164133 0.192750 -0.102651 0.270087 0.367659 0.288476 -0.479490 0.019399 0.116337 -0.182001 0.307724 -0.106308 -0.102322 0.197901 0.070368 0.159397 -0.009922 -0.094336 0.237323
B4 -0.107702 -0.065448 -0.153538 0.170740 -0.176989 -0.168917 0.203008 -0.151355 -0.004562 0.163906 -0.097124 -0.029164 0.044881 -0.212114 -0.133402 -0.156570 0.028994 -0.041011 -0.222334 -0.093188 0.314940 -0.161362 0.410558 -0.012369 0.159356 -0.346820 -0.074885 0.280116 -0.173070 0.428834 -0.059787 -0.032867 -0.263222 -0.105001 -0.180230 0.258504 -0.020665 0.310269 0.150295 0.068409 0.214448 -0.331294 -0.126271 -0.080198 0.306518 0.161381 0.034419 0.139660 -0.036345 -0.094133 -0.055813 0.003812 0.081765 0.304522 -0.309151 -0.035380 0.082306 -0.213108 0.132327 -0.309586 -0.119014 -0.029320 -0.216775 -0.276743 0.160254 0.095969 -0.123956 -0.258996 -0.217490 -0.002396 0.066280 0.078836 0.131804 -0.019479 -0.071986 0.126161 0.037160 -0.098354 0.105071 0.251616 -0.012204 0.161758 -0.304577 0.419546 0.169403 -0.323062 0.034039 0.213528 -0.289145 0.092749 -0.096979 0.253859 0.033105 0.496633 -0.090783 0.286911 0.003145 0.097434 0.384603 -0.133440 -0.094150 -0.191323 -0.258410 0.233458 0.006216 -0.047049 0.194684 -0.094038 0.077625 -0.067870 0.380393 0.044163 0.081714 -0.081180 0.307831 -0.284115 0.192285 0.028457 -0.018151 -0.129357 0.156690 0.063232 0.142425 -0.040814 -0.267588 -0.027309 -0.000575 -0.070637 0.100156 0.039280 -0.031987 0.044823 -0.064759 -0.067319 0.086823 0.129060 -0.385318 -0.268100 0.196651 0.046819 0.167952 -0.084850 0.099429 0.000924 -0.251500 -0.020126 0.196084 0.197370 0.089193 0.129071 -0.201460 -0.058309 -0.206123 -0.204538 -0.113819 -0.092140 0.053962 0.322428 0.038798 -0.078212 0.144504 0.060630 -0.044784 -0.063140 -0.075338 0.030932 -0.408842 -0.197116 -0.289610 -0.396077 -0.141017 -0.094244 -0.064207 0.039161 0.091706 -0.021876 0.013125 0.007664 0.158692 0.038751 -0.319022 0.201001 -0.010888 0.090967 0.126940 -0.006065 -0.241363 0.229509 0.446432 0.144639 -0.215887 0.234392 -0.069607 0.211766 0.122499 0.208416 0.168274 -0.260906 -0.000680 -0.018219 -0.087398 -0.188508 -0.095503 0.374892 0.269145 0.227955 -0.020413 0.030279 0.256939 -0.128692 -0.127504 0.005609 0.176874 -0.068833 0.078155 -0.116241 0.061270 -0.025111 0.212111 -0.146307 -0.095166 -0.163544 0.161460 0.149885 0.103280 -0.146491 0.057448 0.080649 -0.070952 -0.201735 -0.381766 0.364033 0.145485 0.002616 -0.257648 -0.249755 0.122946 -0.036777 0.210960 -0.089454 -0.384491 -0.045163 -0.022616 -0.033452 0.120810 0.096422 0.064989 0.117987 -0.366012 0.034993 -0.302909 0.293903 -0.051114 -0.002385 0.057004 0.126344 -0.021593 -0.041383 -0.309412 0.075555 0.103803 0.391805 0.351311 0.028663 0.175270 -0.080508 -0.454089 0.242844 -0.034124 -0.206956 -0.053387 0.155203 -0.416722 -0.369929 -0.283426 -0.142806 0.038351 0.064347 -0.237027 0.108949 0.155379 -0.286892 0.168647 -0.112938 0.132939 0.312567 0.113210 -0.426833 0.224036 0.127485 -0.362660 0.284803 0.105360 -0.046840 0.115795 0.231450 -0.038337 0.131127 -0.143547 0.038149
G3 0.043220 -0.020793 -0.361936 -0.200832 -0.160248 -0.134194 0.178153 0.039332 0.020635 0.058935 0.158657 0.160953 -0.007453 0.132950 0.023995 -0.019982 0.070590 -0.100656 -0.194715 -0.025452 0.013513 0.181685 0.185260 -0.137483 0.119642 0.001735 -0.244065 0.051705 -0.054567 0.229243 -0.079343 0.013274 -0.167563 -0.053902 0.212757 0.085648 -0.132699 0.135126 0.176394 -0.023159 0.066064 -0.053044 -0.167386 0.005799 -0.058121 0.076849 0.102371 -0.038722 0.247985 -0.057616 -0.008305 0.210070 0.131641 0.285068 -0.112051 0.208942 0.064436 0.149144 0.066173 -0.160451 -0.169772 -0.206054 -0.149425 -0.049939 0.081596 -0.172843 -0.265080 -0.073219 0.077804 -0.055273 -0.005098 0.119229 -0.080448 -0.127228 -0.023626 0.057166 0.073261 -0.014952 -0.059236 -0.099714 0.145577 0.003578 -0.240344 -0.119651 0.149507 -0.039288 0.074949 0.016946 -0.016235 0.052566 -0.027303 -0.085079 0.062709 0.046808 -0.217413 0.120653 -0.102304 0.126207 0.002291 0.105548 -0.081752 0.173957 0.015941 -0.097775 0.056146 -0.036286 0.009242 -0.064321 -0.022635 0.015941 -0.037647 0.061363 -0.239921 -0.127197 0.191698 -0.099898 0.186543 0.032341 -0.071047 -0.131713 0.309332 0.139071 0.181532 -0.261131 -0.071916 0.014354 -0.262048 -0.067164 0.147535 -0.009842 0.232597 -0.064466 0.269228 -0.229298 -0.098414 -0.054814 -0.021619 -0.105878 -0.125849 0.066697 -0.038715 -0.304825 0.257062 0.108197 -0.047006 0.067538 0.118969 -0.175394 0.140332 0.006682 -0.113198 0.098334 -0.108750 0.066181 -0.131252 -0.051704 0.052536 0.012013 -0.129075 0.000840 -0.026634 0.266521 0.120970 -0.099199 -0.244049 0.149059 0.007716 -0.142351 -0.305531 0.066333 0.046934 0.001923 0.028920 -0.156535 -0.091855 0.119087 -0.209698 -0.179554 -0.018121 -0.048200 -0.268524 0.085631 0.055735 0.079423 -0.187327 0.212146 0.033937 0.047658 0.074817 0.036021 0.006577 0.084098 -0.286095 -0.290245 0.157308 0.388627 -0.118382 -0.169904 0.131484 -0.340415 -0.206044 0.008134 -0.000302 0.072938 0.060071 0.169952 0.114842 0.177219 0.027289 -0.294874 -0.304631 0.137246 0.068438 -0.101677 -0.164255 -0.018537 -0.121476 0.060443 -0.048434 -0.066419 -0.364025 0.150298 0.120884 -0.057459 0.044791 -0.095192 0.081114 -0.198771 0.146513 -0.021576 -0.107443 0.169859 0.165539 0.110496 -0.189744 -0.037492 0.185626 0.194694 -0.365771 -0.012254 -0.112760 0.045225 -0.115169 0.209566 0.299020 0.013866 -0.059949 -0.202901 -0.267137 -0.097506 -0.199359 0.181819 -0.162798 0.121196 0.022699 -0.044394 -0.399122 0.025479 0.159451 0.140740 -0.262947 0.037610 0.289226 -0.004379 -0.000628 0.264168 -0.134046 -0.108065 0.053766 -0.184661 0.129329 0.139065 -0.258598 0.075087 -0.039154 -0.203870 0.209101 -0.063318 -0.071955 0.242318 0.011950 -0.146408 0.093472 0.029285 -0.035504 0.048481 -0.053690 -0.167121 0.036387 -0.094225 -0.306855 0.082482 -0.119809 0.229258 -0.033476 0.199397 -0.005003 0.057361 0.040515 0.002380
C4 -0.067978 0.041487 -0.287826 -0.068370 -0.145014 -0.113150 0.158791 -0.110187 0.098746 0.037670 0.157300 -0.087190 0.136957 -0.030139 0.038714 -0.110929 -0.080685 0.043691 -0.137585 0.043628 0.026043 0.077390 0.227727 -0.124091 0.090931 0.003582 -0.237594 0.054961 0.027762 0.418658 -0.231501 -0.021272 -0.356422 0.051366 0.201778 0.154178 -0.261831 -0.040705 0.132988 -0.003918 -0.133338 0.129582 -0.151591 0.093024 -0.148265 -0.038749 -0.040757 -0.033925 0.259648 -0.074704 -0.167242 0.139599 0.067437 0.239224 -0.161226 0.226317 -0.217195 0.016176 0.145474 -0.091238 -0.329685 -0.021002 -0.066477 -0.131662 -0.022709 -0.062117 -0.402063 -0.047254 0.049856 -0.086803 0.209082 0.161440 0.092177 0.158421 -0.256884 -0.044864 0.208197 -0.175616 -0.052744 0.073628 -0.061252 -0.178477 -0.442857 0.179285 0.086673 -0.000655 0.127661 -0.019278 -0.181604 -0.107065 0.039574 -0.006493 0.122455 0.048215 -0.280470 0.272654 -0.170032 0.256589 0.168021 0.065071 -0.214443 0.270338 0.092377 -0.003071 -0.167364 0.021028 0.192704 -0.179256 0.160811 0.018991 0.048102 0.102512 -0.229057 0.025291 0.248717 -0.216857 0.126018 0.031688 -0.069557 -0.062601 0.239017 0.055938 0.313302 -0.298497 -0.088109 -0.082062 -0.075800 -0.032925 -0.015764 0.137139 0.275111 0.167098 0.376123 -0.357627 0.054647 -0.057369 0.007580 -0.334489 0.115828 0.039784 -0.024480 -0.464540 0.245025 0.093745 -0.035364 -0.137859 0.221679 -0.244304 -0.067742 -0.074249 -0.173841 -0.024246 -0.200680 -0.019587 -0.118184 -0.311147 0.069564 0.096735 -0.080721 0.000723 -0.080632 0.126704 0.131769 -0.086351 -0.172270 0.133348 0.070632 -0.062616 -0.138697 0.039258 -0.150104 0.095217 0.090284 0.006033 -0.094195 0.254020 -0.063050 -0.106301 -0.134210 -0.074257 -0.479352 0.223272 0.070694 0.195708 -0.162399 0.362539 -0.117621 0.032069 0.174074 0.199991 -0.173758 0.127502 -0.387742 -0.195926 0.274555 0.211833 -0.007972 -0.281008 -0.009261 -0.214041 -0.234909 -0.157595 -0.043082 0.140685 0.185464 0.194612 0.211758 0.247731 -0.125175 -0.139709 -0.535681 0.195953 0.144534 -0.109137 0.009454 -0.059280 -0.095173 -0.034444 -0.037822 -0.187376 -0.083070 -0.134073 0.035159 -0.039496 0.024378 0.131789 -0.088061 -0.264621 -0.064490 -0.098314 -0.183394 0.243204 0.059359 0.063597 -0.113320 -0.108145 0.208624 -0.013863 -0.438242 -0.134959 -0.070685 0.123770 -0.070999 0.206982 0.267272 -0.095355 -0.166287 -0.340989 -0.158913 -0.105487 -0.165541 -0.014455 -0.024202 0.083589 -0.036544 0.177146 -0.393470 -0.143142 0.243734 0.351363 -0.203366 0.157496 0.178959 0.054856 -0.060173 0.127788 -0.254322 0.084519 0.068377 -0.305902 -0.032684 0.160765 -0.122085 0.023800 -0.220207 -0.094441 0.067372 -0.239049 -0.048938 0.240984 -0.020432 -0.076525 -0.039154 0.015380 -0.125746 -0.037046 0.082482 -0.142529 0.093774 0.161325 -0.209162 0.069537 -0.138005 0.062709 0.021611 0.202161 -0.181695 0.044419 0.059254 -0.207128
F4 -0.341718 0.060633 -0.110404 0.061993 -0.014813 0.033283 -0.109437 -0.059513 -0.006221 0.194323 0.270990 -0.103816 0.154355 -0.083861 0.034151 0.054841 -0.307330 0.167893 -0.123329 -0.193400 -0.176479 0.181534 0.265983 0.171713 0.099796 0.159895 -0.230890 0.008613 0.179979 0.254268 -0.040612 -0.005708 -0.191898 0.285488 0.187459 0.209488 -0.127682 -0.159662 0.000780 -0.132864 -0.137107 0.229941 -0.200289 0.361792 -0.039775 -0.187018 0.234631 -0.132827 0.042263 0.119475 -0.108362 0.056434 0.211693 0.036845 -0.068254 0.440642 -0.265772 -0.096973 0.149003 -0.207702 -0.152671 0.118827 0.059494 -0.045627 0.026791 -0.088547 -0.534748 0.044083 0.108318 0.180963 0.387958 0.191525 0.238859 0.172301 -0.088615 -0.182053 0.106637 -0.127384 -0.251401 0.067911 -0.180069 0.034812 -0.254368 0.270379 0.252648 0.175580 0.224030 -0.135932 -0.270581 0.093716 0.165677 0.302068 0.222349 0.098769 -0.114214 0.199967 0.104848 0.142119 -0.135208 -0.030840 -0.130940 0.221797 0.065461 0.021162 0.065645 -0.172446 0.010438 -0.237688 0.329650 -0.146158 -0.079078 0.157825 -0.227462 -0.303120 -0.016298 -0.439057 0.176484 0.102305 -0.333669 -0.336027 0.311069 0.030757 0.244548 -0.266687 0.016612 0.016228 -0.128360 -0.032717 -0.065470 -0.090218 0.225634 0.183430 0.129743 -0.105307 -0.284975 -0.408439 0.236123 -0.454689 -0.113435 0.047940 -0.002846 -0.307921 0.326450 0.055629 -0.039967 -0.215704 -0.030507 -0.214929 0.071488 0.120902 -0.281084 0.060902 0.105172 0.220965 -0.175568 -0.239083 0.183666 -0.033554 -0.394901 0.179933 -0.201962 0.045439 0.333440 -0.131728 -0.219988 0.008677 0.429215 0.029459 -0.113030 0.299607 -0.035736 0.206018 0.170847 -0.017924 -0.126970 0.107714 0.133419 -0.069485 -0.109014 0.048114 -0.499047 0.368515 -0.212985 0.155008 -0.134947 0.355445 0.211666 -0.064428 0.192376 0.225735 -0.206386 0.050265 -0.110244 0.047281 0.187747 0.255857 -0.117621 -0.231541 -0.124291 -0.340665 -0.122757 -0.300391 -0.206280 0.139051 0.055827 -0.164914 0.328524 0.014576 -0.218513 -0.169095 -0.346459 0.015124 0.211838 0.120142 -0.026021 0.019448 0.041765 -0.059070 -0.033226 -0.229869 -0.125760 -0.192225 -0.296573 0.089804 -0.068493 -0.102279 -0.077005 -0.208791 -0.208210 0.046659 -0.387695 0.031751 0.027587 -0.256033 0.026835 -0.061110 0.307164 -0.028772 -0.381938 0.046138 -0.074956 0.069930 0.109400 0.186957 0.572955 -0.070921 -0.152228 -0.357509 0.183937 -0.217998 -0.222396 0.162185 -0.092910 0.045797 -0.012553 0.028017 -0.346708 -0.099437 0.304367 0.259340 0.018265 0.279736 0.122440 0.121736 -0.210492 -0.020877 0.062453 -0.000893 0.048426 -0.280016 -0.123496 -0.090920 -0.023201 0.081312 -0.208502 -0.056346 -0.085580 -0.462379 0.001342 0.032684 0.002341 -0.054740 0.095310 -0.051808 -0.053260 -0.099033 0.303602 -0.104589 0.066915 0.099889 -0.189738 0.154773 -0.057282 -0.099481 0.278028 0.245406 0.254410 -0.179055 -0.029561 -0.210124
D3 0.149898 -0.014780 -0.408141 -0.324803 -0.105490 -0.033031 0.214623 0.094610 -0.043744 0.167073 0.042355 0.360088 -0.137035 0.233728 0.087939 0.018628 0.139680 -0.344678 -0.188771 -0.053916 0.037093 0.199908 0.130548 -0.144656 0.098541 -0.033958 -0.264011 -0.017788 -0.034304 0.318906 -0.048681 0.080323 -0.041562 -0.130110 0.211752 0.186138 -0.070784 0.232778 0.120092 -0.100466 0.097534 -0.168314 -0.222314 -0.053914 -0.027955 0.074120 0.141069 0.009277 0.324301 -0.165930 0.058587 0.159583 0.206540 0.244456 -0.190556 0.275416 0.109284 0.196221 0.029802 -0.233478 -0.200716 -0.225325 -0.090852 -0.096660 0.145440 -0.342106 -0.380527 -0.225800 -0.017191 0.122558 -0.013966 0.156086 -0.236402 -0.306909 0.161443 0.070367 -0.109137 0.105833 -0.053337 -0.136799 0.177972 0.144906 -0.287930 -0.103928 0.059737 -0.002677 0.119593 -0.037214 0.004770 0.151308 -0.095393 -0.029496 0.150810 0.142477 -0.152156 0.053633 0.007046 0.073026 -0.069900 0.112238 -0.046981 0.021776 -0.032015 -0.047145 0.073802 -0.047563 -0.029284 -0.003593 -0.107577 -0.066058 -0.063704 0.076920 -0.191525 -0.351233 0.163767 -0.069997 0.070299 0.095737 -0.075938 -0.246012 0.406883 0.193955 0.138949 -0.244847 -0.079521 -0.028289 -0.346281 -0.059439 0.163539 -0.099254 0.194693 -0.188357 0.177211 -0.213934 -0.118332 0.003086 -0.030575 -0.043598 -0.200055 0.048541 -0.017850 -0.218461 0.407849 0.220641 -0.120190 0.281106 0.136408 -0.127501 0.149581 -0.048567 -0.064151 0.073707 0.001197 0.219568 -0.102489 0.062830 -0.019696 -0.117040 -0.172773 -0.068199 -0.069279 0.274116 0.146736 -0.160537 -0.177662 0.092481 -0.018228 -0.119867 -0.350594 0.091879 0.206921 -0.002650 -0.043255 -0.243369 -0.167479 -0.002311 -0.155115 -0.262342 0.004260 -0.065162 -0.191495 0.168778 0.003825 0.130428 -0.140207 0.174377 0.082603 0.022343 0.054545 -0.057718 0.004271 0.174246 -0.285392 -0.180171 0.114424 0.363881 -0.239215 0.012595 0.131794 -0.483194 -0.075647 -0.006049 -0.154710 0.081308 -0.052558 0.038739 0.072602 0.141200 0.170521 -0.277476 -0.141607 0.013783 0.098485 0.047784 -0.215627 0.002347 -0.130941 0.047910 -0.131673 -0.120377 -0.517808 0.293480 0.113823 -0.124708 0.166365 -0.132526 0.128133 -0.283808 0.191212 -0.021821 -0.248823 0.387213 0.141579 0.106699 -0.290519 -0.091442 0.161531 0.246253 -0.237012 0.083101 -0.190396 0.141434 0.050078 0.244468 0.234109 0.098878 -0.078518 -0.195696 -0.294879 -0.109675 -0.172267 0.319376 -0.263861 0.067845 0.009476 -0.148718 -0.274356 0.088241 0.070002 -0.158640 -0.357589 -0.043703 0.333154 -0.088491 0.066239 0.318658 -0.023761 -0.152348 0.121825 -0.256214 0.179678 0.377280 -0.309872 0.178923 0.069678 -0.252632 0.219954 0.081192 -0.107961 0.097804 0.058369 -0.199079 0.172344 0.008223 0.008547 0.160778 -0.174579 -0.159895 -0.003764 -0.143698 -0.256958 0.041692 -0.156572 0.264813 0.016515 0.120753 -0.004220 0.045290 0.079744 0.252941
B3 -0.040421 -0.215944 -0.185717 0.011686 -0.101921 -0.311472 0.213553 -0.340811 0.013295 0.170782 -0.058288 -0.075586 0.048516 0.065260 -0.033145 -0.101587 -0.018654 0.088026 -0.226695 -0.112812 0.023793 -0.021469 0.360816 -0.081902 0.155834 -0.148616 -0.164048 0.237958 -0.140205 0.504179 -0.135256 0.094062 -0.275864 -0.246044 0.110080 0.133993 0.063644 0.381628 0.273055 0.086770 0.214463 -0.087896 -0.257490 -0.246868 0.213442 0.167811 0.022040 -0.108693 0.169202 -0.250342 -0.134852 0.035169 -0.071529 0.384738 -0.248212 0.164278 0.092568 0.137129 0.254770 -0.206778 -0.274001 -0.276316 -0.194034 0.013002 0.044469 -0.072978 -0.204148 -0.242781 -0.044679 -0.055930 0.006512 0.074329 0.121940 0.049601 -0.239709 0.087151 0.061909 -0.139308 0.187375 0.123651 0.202307 -0.045033 -0.375353 0.302066 0.277541 -0.220080 -0.013640 0.172037 -0.228638 0.120923 -0.126168 0.172123 -0.003679 0.352372 -0.315066 0.370745 -0.146548 0.156371 0.261830 0.047397 -0.181006 0.005933 -0.158012 -0.062413 0.010078 0.011347 0.132331 -0.183526 0.012212 0.016502 0.186004 -0.019890 -0.145566 -0.043897 0.478760 -0.189332 0.247729 0.126413 0.269593 -0.044589 0.168942 0.113075 0.406009 -0.237040 -0.172230 -0.126601 0.062436 -0.247806 0.247139 0.155918 0.124745 0.026342 0.169766 -0.290786 0.032251 0.157240 -0.380763 -0.124039 0.205530 0.262314 -0.047729 -0.300612 0.147406 -0.018815 -0.230537 0.064500 0.228653 -0.145977 -0.002322 -0.076662 -0.009395 -0.046698 -0.281089 -0.105284 -0.090464 -0.066304 0.150810 0.247790 0.015456 -0.041366 0.128613 0.173346 -0.041233 0.037046 -0.132839 -0.017118 -0.211950 -0.169339 -0.249999 -0.113329 -0.087010 -0.039745 0.028282 0.216942 -0.115214 0.189815 -0.128293 -0.046217 0.009665 0.168822 -0.299359 0.141521 0.182681 0.127778 -0.068868 -0.043661 -0.202569 0.124725 0.189279 -0.044393 -0.111576 0.207250 -0.161871 -0.008971 0.291740 0.202955 0.239900 0.104221 -0.063011 -0.177534 -0.219422 0.065580 -0.131963 0.289358 0.246577 0.352557 -0.014295 0.132473 0.037921 -0.003471 -0.167837 0.057723 0.095639 -0.195618 -0.037161 -0.073693 -0.230228 0.070529 0.109027 -0.175682 -0.077528 -0.050304 0.418753 -0.050576 0.123330 -0.130564 -0.132357 -0.027398 -0.102243 -0.087784 -0.275255 0.324789 0.203329 0.216536 -0.243043 -0.105847 0.241310 0.190304 -0.136852 0.092063 -0.112555 0.006749 0.031510 0.123815 0.101431 0.029234 -0.013629 0.002301 -0.266938 0.043778 -0.322691 0.062161 -0.261730 0.031593 0.133833 0.195857 -0.403792 -0.076249 0.036572 0.119398 0.058611 0.109575 0.178044 -0.069413 0.169043 0.016259 -0.281789 0.181789 0.113774 -0.288766 -0.044842 0.118190 -0.419117 -0.338396 -0.200674 -0.165229 0.119422 0.135970 -0.109237 0.240698 0.021831 -0.260923 -0.070463 0.060908 -0.162368 0.308149 -0.148513 -0.371275 0.099249 0.243265 -0.307067 0.039031 -0.273445 0.037260 -0.009292 0.230454 -0.132141 0.084643 -0.033811 0.046767
E3 0.046435 -0.047513 -0.340476 -0.080397 -0.068426 -0.135166 0.273822 -0.079492 -0.099963 0.232037 0.091593 0.227237 -0.161029 0.172735 0.010468 0.023277 0.070491 -0.210519 -0.225878 -0.171659 0.026922 0.068884 0.197972 -0.147098 0.114314 -0.138654 -0.216692 0.148655 -0.057034 0.324198 -0.075444 0.092771 0.005048 -0.198071 0.088718 0.038916 0.087432 0.373528 0.252487 -0.029454 0.219629 -0.237968 -0.212276 -0.109093 0.139676 0.041952 0.157261 -0.005840 0.247200 -0.121085 0.072298 0.108498 0.150680 0.253084 -0.239813 0.221584 0.259502 0.121059 0.052050 -0.275211 -0.216963 -0.286291 -0.168134 -0.046901 0.161036 -0.323282 -0.326376 -0.175512 -0.167100 -0.000871 0.032211 0.102690 -0.057394 -0.199740 0.039077 0.177941 -0.006385 -0.011656 -0.000326 -0.057181 0.251773 0.143276 -0.351757 0.054402 0.119665 -0.086199 0.063407 0.100568 -0.142597 0.220717 -0.170108 0.130391 0.161611 0.352483 -0.193770 0.202307 0.074749 0.173416 0.118039 0.057885 -0.051788 -0.128797 -0.172266 -0.013867 0.075737 -0.095152 0.001739 -0.012912 -0.037867 -0.043400 0.049483 0.058860 -0.099927 -0.338934 0.200466 -0.219030 0.180282 0.123270 -0.026591 -0.161018 0.474638 0.272924 0.277764 -0.233839 -0.159749 0.010519 -0.183225 -0.123551 0.278599 0.048259 0.127531 -0.149497 0.132884 -0.133588 -0.066505 0.028194 -0.291352 -0.104221 -0.046047 0.149790 -0.030827 -0.088805 0.417354 0.067315 -0.149835 0.134124 0.176136 -0.043565 0.100355 0.009787 -0.149333 0.063578 -0.124076 0.080028 -0.232050 0.202205 0.105703 0.094393 -0.140497 0.023999 0.020745 0.247821 0.077465 -0.064368 -0.253791 0.060114 -0.159436 -0.190812 -0.403620 -0.093172 0.171864 -0.144866 -0.002650 -0.110538 -0.041755 -0.076354 -0.085255 -0.124651 0.187373 -0.042532 -0.212032 0.214024 0.012604 0.151882 -0.057941 0.082118 -0.052128 0.146492 0.170737 -0.102763 -0.081580 0.260849 -0.211900 -0.092321 0.161038 0.265935 -0.037025 0.008259 0.071867 -0.484047 -0.177720 0.059384 -0.159490 0.240909 0.106058 0.088267 -0.001911 0.090220 0.308653 -0.178209 -0.053664 0.023713 0.182187 -0.029225 -0.152893 -0.027812 -0.173560 0.039887 -0.124282 -0.045314 -0.480513 0.154385 0.222634 -0.010355 0.144650 -0.172576 0.097072 -0.109946 0.054834 0.024960 -0.334081 0.378345 0.176129 0.119510 -0.329909 -0.153978 0.223081 0.291477 -0.026317 0.023858 -0.215230 0.008177 0.081439 0.208880 0.117688 0.065234 -0.019366 0.014184 -0.253127 -0.041198 -0.346217 0.324062 -0.295277 0.022228 0.125323 -0.066891 -0.081481 0.108977 0.009894 -0.115759 -0.073980 0.149486 0.247825 -0.033388 0.150716 0.279841 -0.238871 0.081354 0.144862 -0.256319 0.159443 0.248920 -0.409416 -0.072336 -0.064088 -0.100957 0.257367 0.176132 -0.183680 0.149769 0.221060 -0.354385 0.227776 -0.055956 0.062937 0.258519 -0.142856 -0.322866 0.151450 -0.050616 -0.276854 0.074255 -0.099774 0.160897 -0.005400 0.198081 0.091939 0.071693 -0.108725 0.267778
F#4 0.091616 -0.202044 -0.227834 -0.138543 -0.254212 -0.049328 0.174532 -0.074403 0.176765 0.182000 -0.284944 -0.048205 0.166675 -0.126305 0.049132 -0.261332 0.092290 -0.100651 -0.327879 -0.101691 0.142192 0.012751 0.585766 -0.060310 0.109236 -0.228549 -0.041568 0.150791 -0.342308 0.390385 0.159492 -0.059822 -0.434295 -0.161542 -0.001471 0.366739 -0.045393 0.333632 0.099671 0.005085 0.134340 -0.470025 -0.165127 -0.211415 0.204729 0.339212 0.117310 0.100043 -0.120076 -0.201977 -0.011998 -0.043388 0.110325 0.286761 -0.217898 -0.120854 0.030379 0.028083 0.180053 -0.164340 0.045939 -0.066562 -0.312336 -0.138662 0.208203 0.180451 -0.045360 -0.358872 -0.072363 0.123819 -0.154223 0.110459 -0.114216 -0.226056 0.127553 -0.022067 -0.275554 0.065273 0.148250 0.158523 0.090744 0.063393 -0.060092 0.183119 0.268313 -0.254016 0.028403 0.215077 -0.190049 0.087347 -0.068641 0.129331 -0.077017 0.187753 -0.071946 0.081323 -0.283712 -0.172343 0.027878 -0.208742 -0.133140 -0.046737 -0.109925 0.094196 0.235290 -0.064429 -0.062673 -0.169664 -0.321248 0.015754 0.274595 0.021198 -0.039295 -0.030496 0.256082 -0.040254 0.139091 -0.037304 0.144453 -0.264756 -0.088344 0.057860 0.097008 -0.090581 -0.133603 -0.044226 -0.143416 -0.083848 0.009737 -0.169117 -0.115962 -0.137951 -0.143457 -0.227376 -0.119610 0.244295 -0.133182 0.060728 -0.000661 0.062151 0.118601 -0.138959 -0.053288 0.149419 -0.271104 0.331237 0.133706 0.258109 0.281535 0.049926 0.010190 -0.010598 -0.090374 -0.040949 0.196882 -0.223147 -0.095716 0.033093 -0.044329 -0.327572 0.060449 0.246746 -0.103480 0.008732 0.008345 -0.052471 -0.350212 -0.065806 -0.416617 -0.206265 -0.144533 0.140008 -0.237866 0.090694 0.046661 0.142213 -0.202615 -0.081076 -0.182141 0.311264 -0.214612 0.101369 0.093369 0.089578 -0.120643 -0.043537 -0.097856 -0.069875 0.183957 0.102165 0.006264 0.038271 -0.061079 0.127432 0.148809 0.334690 -0.043951 0.060000 -0.048129 0.018393 0.011956 -0.174017 -0.155619 0.187168 0.102902 0.308133 0.002363 0.026400 -0.006295 -0.140702 -0.075923 -0.138468 -0.195866 -0.196575 -0.080838 0.047962 -0.002145 0.235859 0.364325 -0.243133 -0.217635 -0.016817 0.345666 -0.107153 0.143687 -0.338830 0.030924 -0.112504 0.135208 -0.180206 -0.204928 0.291760 0.237019 0.077950 -0.397094 -0.304743 0.034645 0.126962 -0.002281 0.077498 -0.467236 0.099037 -0.038092 -0.019115 0.320895 0.135625 0.036854 0.137512 -0.374100 -0.114243 -0.115302 0.183133 -0.011426 -0.072861 0.127206 0.050092 -0.520255 -0.201092 -0.225650 -0.032713 -0.024766 0.122764 0.387095 -0.138181 0.175639 -0.087267 -0.049270 -0.115791 -0.180358 -0.069074 0.000311 0.218375 -0.455368 -0.364580 0.133520 -0.576092 -0.019366 0.172958 -0.157370 0.000787 -0.185790 -0.104858 -0.008526 0.077376 -0.175710 0.189434 -0.133144 -0.171200 0.033844 -0.069870 -0.358162 0.143613 0.019999 0.114878 0.102046 0.194855 -0.153978 0.182972 0.060709 0.044310
G5 -0.183485 0.085373 -0.067622 -0.027814 -0.132482 0.030418 0.124328 0.168891 0.106240 -0.084232 0.034552 0.229221 -0.145879 -0.112375 -0.011434 -0.075599 0.133474 -0.361967 0.000316 0.321392 0.214313 -0.116948 0.062098 0.138930 0.277615 -0.028365 -0.047622 0.113523 -0.138134 0.135212 -0.108611 -0.186741 0.032876 -0.060777 0.072778 0.545336 -0.319804 -0.008800 0.004639 0.049622 0.218642 -0.249099 -0.067874 -0.047332 -0.002886 0.182903 0.153037 0.039505 0.105810 -0.087361 -0.119959 0.068535 -0.059506 0.234863 -0.194849 0.169500 -0.260078 -0.213424 -0.349376 -0.335098 -0.197121 0.117211 0.083920 -0.251937 0.239455 0.248920 0.029080 -0.285923 0.210961 0.029415 -0.041974 0.141071 -0.157739 0.048433 0.025258 -0.003270 -0.240545 0.000008 0.023348 0.199830 -0.049904 0.151924 -0.047242 0.153120 0.113281 -0.322998 0.292407 0.085613 -0.028151 -0.019961 -0.001800 0.138245 -0.077216 0.321741 -0.017704 0.029468 0.061498 -0.208247 0.008482 0.093542 0.104182 -0.118234 -0.036297 0.235055 -0.012746 -0.055821 0.195357 -0.002590 0.250026 -0.461325 0.392523 -0.067088 0.038311 -0.098812 0.237086 0.015791 0.114229 0.028375 -0.086521 -0.314218 0.186829 -0.218303 -0.209107 -0.005009 -0.169402 0.013789 -0.142790 -0.139980 -0.066140 -0.160923 0.093542 0.165018 0.042232 -0.231388 0.013503 -0.119501 -0.019524 -0.094245 -0.088439 -0.291165 0.302855 -0.088768 -0.119202 0.362399 -0.147344 0.063840 -0.054452 0.048205 0.051799 0.127483 -0.214191 0.016363 0.178216 0.052549 -0.102633 -0.256052 -0.140657 0.157224 0.114008 -0.259645 0.148746 0.004252 0.096581 -0.322298 0.117909 -0.031313 -0.173218 -0.436113 0.080398 -0.333119 0.022686 0.126166 0.053844 -0.089535 -0.262550 -0.181189 0.080621 -0.192034 0.039154 -0.103051 -0.018023 -0.020484 -0.159284 -0.014159 0.065759 0.172003 0.021038 0.006760 0.393309 0.204082 -0.138329 0.310405 -0.065390 0.136413 -0.010154 0.350451 -0.072965 -0.317202 0.209506 0.073108 0.173617 -0.040090 -0.117375 0.083081 -0.024274 0.009703 0.026323 0.218640 0.099677 -0.169900 -0.153641 0.043590 0.286378 0.404159 0.008811 -0.230132 0.255137 -0.200061 -0.044697 -0.152757 -0.236140 0.010154 -0.127788 0.068885 0.253098 0.078218 0.121426 -0.013484 0.143652 -0.331153 -0.261325 0.280841 0.017221 -0.145763 -0.062995 -0.112961 0.023684 -0.216863 -0.127812 -0.044297 -0.229545 0.046285 -0.049221 -0.210092 0.128696 0.138876 -0.103906 -0.152263 -0.558322 0.169616 -0.070921 0.595645 -0.032389 0.039077 -0.071317 0.069636 0.040547 0.124910 -0.286699 0.162904 -0.134057 0.142184 0.351812 -0.038976 0.000400 -0.041214 0.039044 0.065181 -0.029674 -0.070797 0.041346 0.306125 -0.008446 0.163859 -0.409414 -0.153353 -0.058300 -0.122946 -0.105266 0.139072 0.162867 -0.020167 0.173069 -0.020388 0.194755 0.270549 0.301149 -0.417310 -0.068605 -0.043164 -0.113819 0.274748 -0.230889 0.174763 0.086615 -0.114835 0.009471 0.102454 0.015560 0.195138
B-4 -0.253303 0.113209 -0.170506 -0.092828 -0.156020 0.132931 -0.074476 0.209791 0.107192 0.080494 0.180050 0.038564 0.186794 -0.273721 0.003785 -0.108033 -0.087298 -0.069836 -0.172909 -0.020215 0.042663 0.186988 0.319347 0.168958 0.120358 0.021842 -0.172140 -0.038416 -0.020137 0.146005 0.117335 -0.139913 -0.355511 0.338961 0.061642 0.464596 -0.335535 -0.122050 -0.046722 -0.126549 -0.119381 -0.056414 0.002017 0.389831 -0.100520 0.075702 0.282149 0.095478 -0.081061 0.215617 -0.051648 0.100327 0.352056 0.121164 -0.041812 0.265287 -0.238884 -0.246280 0.038598 -0.304081 -0.008818 0.260582 -0.055822 -0.266414 0.146185 0.180084 -0.286350 -0.140176 0.163227 0.293763 0.197155 0.219613 0.035704 -0.039475 0.114190 -0.195908 -0.030713 0.009245 -0.279290 -0.049946 -0.258028 0.198909 -0.080814 0.127187 0.240314 -0.023073 0.251325 -0.123633 -0.169947 0.031731 0.186327 0.174924 0.093310 0.120580 -0.034117 0.062855 0.079681 -0.025480 -0.166087 -0.089888 -0.077271 0.177064 0.039996 0.145004 0.194909 -0.158401 -0.019599 -0.209527 0.174805 -0.158631 0.041672 0.133908 -0.168304 -0.209122 -0.073056 -0.285055 0.217365 -0.004926 -0.435610 -0.461375 0.162466 -0.067020 -0.081900 -0.202585 -0.129002 0.070672 -0.370976 0.048250 -0.124047 -0.279642 0.121971 0.101946 -0.021715 -0.081970 -0.260857 -0.352770 0.324129 -0.422700 -0.274976 -0.154680 0.174192 -0.184930 0.160363 0.284927 -0.088379 -0.058425 -0.066918 -0.016805 0.310781 0.288230 -0.382933 0.187193 0.213712 0.198292 -0.042438 -0.294278 0.048412 -0.019586 -0.315845 0.040285 -0.092361 0.090376 0.301787 -0.270767 -0.169980 0.034161 0.244501 -0.111955 -0.167710 0.093715 -0.146163 0.315159 -0.005764 -0.158109 -0.022728 0.070205 -0.029223 -0.129551 -0.115080 0.058073 -0.504789 0.225528 -0.231505 -0.003903 -0.180765 0.354701 0.262643 -0.045157 0.294367 0.384521 -0.121214 -0.022229 -0.154740 0.122739 0.074992 0.559343 -0.300789 -0.494534 0.040089 -0.132115 -0.020446 -0.417394 -0.091078 0.073168 0.026467 -0.128511 0.389661 0.008058 -0.128159 -0.449853 -0.432269 0.076215 0.144630 0.098915 -0.028282 0.026186 0.221418 0.035860 0.196119 -0.211258 -0.266378 -0.089338 -0.337291 0.139189 -0.022181 -0.208852 0.067092 -0.187374 0.073516 -0.091970 -0.249397 -0.008751 0.090079 -0.342160 -0.138064 -0.115278 0.163486 -0.174600 -0.293192 -0.038994 -0.422778 0.084887 -0.114011 -0.065082 0.665102 0.009650 -0.125198 -0.318841 -0.090841 -0.212936 -0.093994 0.381959 0.103845 0.063791 -0.111417 -0.075107 -0.337549 -0.060470 0.001599 0.288892 -0.130602 0.304509 0.438851 0.136619 -0.207077 -0.030192 0.152182 -0.183728 -0.121624 -0.101543 -0.079896 -0.002657 -0.070714 0.128804 -0.127240 -0.359497 -0.156132 -0.483549 -0.043050 0.023821 -0.087355 0.019903 0.199159 -0.032356 0.136282 -0.093659 0.395434 -0.110199 -0.008219 -0.117571 -0.321074 0.396902 0.193316 -0.021055 0.331948 0.221304 0.251754 -0.090863 0.016930 -0.184792
F3 -0.102241 0.132898 -0.272418 -0.185193 0.048052 -0.039079 0.035300 0.015890 -0.058800 0.127457 0.383776 0.279417 -0.056675 0.099981 0.036655 0.147676 -0.103886 -0.145417 -0.162047 -0.110293 -0.077424 0.281830 -0.031147 0.052770 0.093437 0.151392 -0.359116 -0.055758 0.209872 0.268043 -0.166839 0.096645 0.044284 0.147866 0.204630 0.146120 -0.025977 0.059121 0.114558 -0.157897 -0.033214 0.230780 -0.151764 0.261905 -0.137855 -0.143598 0.182439 -0.098610 0.357990 0.036640 -0.033005 0.166650 0.256278 0.247175 -0.168797 0.624550 0.012196 0.056259 0.142668 -0.343442 -0.333601 -0.124578 0.058009 -0.051883 0.013946 -0.389493 -0.582036 -0.050893 0.079193 0.128125 0.252106 0.157176 0.130559 -0.136368 -0.076560 -0.005607 0.167970 -0.054083 -0.285125 -0.284783 -0.013431 0.225029 -0.475054 0.009339 0.114372 0.158830 0.161005 -0.232681 -0.001593 0.213391 0.068186 0.142321 0.305095 0.189157 -0.305724 0.251642 0.303482 0.348602 -0.068308 0.214073 -0.063176 0.134566 0.019881 -0.147685 -0.041681 -0.025181 0.011855 -0.103273 0.204863 -0.046941 -0.294134 0.131834 -0.340515 -0.412563 0.048163 -0.361733 0.244779 0.212148 -0.293857 -0.247885 0.599211 0.169273 0.231581 -0.357053 -0.163563 0.058626 -0.324336 -0.139502 0.200943 0.031574 0.383148 0.021266 0.299237 -0.075851 -0.131016 -0.368212 0.053221 -0.454551 -0.219245 0.125401 -0.137341 -0.238837 0.632233 0.164176 0.012783 -0.064447 0.078925 -0.461295 0.114260 0.046238 -0.265762 0.223486 0.032276 0.295570 -0.358961 0.124727 0.192191 0.035086 -0.340144 0.382142 -0.103420 0.163498 0.404652 -0.260249 -0.352196 0.037459 0.348621 -0.201570 -0.176491 0.311126 0.115744 0.080801 0.142206 -0.254735 -0.161298 0.081123 0.059937 -0.189323 0.077974 -0.124120 -0.464741 0.214684 -0.142298 0.118970 -0.152802 0.333598 0.208658 0.134539 0.094529 0.047477 -0.133116 0.165810 -0.338442 -0.123954 0.141311 0.407835 -0.155747 -0.238089 0.064720 -0.616494 -0.242202 -0.086825 -0.119643 0.052445 0.002389 -0.102612 0.266478 0.098872 0.066228 -0.346635 -0.447056 0.199396 0.313535 0.055986 -0.127184 -0.000617 -0.118646 -0.042814 -0.188652 -0.039888 -0.444711 0.191601 -0.147694 0.105339 -0.012668 -0.054304 -0.001064 -0.288479 -0.072969 0.132457 -0.287035 0.099818 0.153960 -0.080387 -0.139050 0.134357 0.358995 0.147846 -0.425724 0.063512 -0.079416 0.048247 0.027764 0.255671 0.291974 -0.022937 -0.201356 -0.402157 0.003548 -0.172786 -0.261801 0.292034 -0.249924 0.133637 -0.105693 -0.179832 -0.157905 0.193472 0.315203 0.209580 -0.331273 0.137592 0.307512 0.075201 -0.107729 0.388745 -0.053119 -0.026041 0.228071 -0.387119 0.024223 0.148559 -0.072573 0.219111 -0.159729 -0.006633 0.164940 -0.309758 0.057392 0.148324 0.146690 -0.223354 0.184547 -0.047589 0.157682 0.129050 0.161122 -0.188620 -0.001305 0.006006 -0.229282 0.112777 -0.156139 -0.044566 0.136205 0.235169 0.280711 -0.163795 -0.026534 0.009087
F5 -0.441270 0.133943 0.043697 0.120456 0.019518 0.043397 -0.060197 0.065394 0.001504 -0.067943 0.271607 0.185281 -0.089446 -0.177577 -0.052481 0.060578 -0.120442 -0.216341 0.023942 0.162382 0.120472 -0.022924 -0.018208 0.345078 0.279747 0.090312 -0.209612 0.072114 0.141875 0.168014 -0.186858 -0.131855 0.078069 0.167280 0.064585 0.568596 -0.241469 -0.130302 -0.065990 -0.049481 0.139001 0.121354 -0.082871 0.223202 -0.052879 -0.012024 0.219531 -0.047772 0.122096 0.052695 -0.210557 0.070394 0.046270 0.178063 -0.117921 0.551945 -0.347369 -0.343115 -0.201971 -0.477400 -0.278619 0.246923 0.271833 -0.206348 0.160125 0.124724 -0.246755 -0.216493 0.255531 0.217281 0.238242 0.170745 0.135703 0.146547 -0.068775 -0.117482 -0.048259 -0.054846 -0.180637 0.084408 -0.221102 0.310466 -0.257454 0.367430 0.178203 -0.125907 0.353621 -0.151886 -0.113309 0.076715 0.130901 0.386670 0.092097 0.424329 -0.042394 0.231364 0.361508 0.001020 -0.052889 0.171083 0.114924 -0.037095 -0.043374 0.195743 -0.022195 -0.036682 0.215319 -0.083585 0.559682 -0.496305 0.213340 0.006385 -0.039285 -0.329873 0.130330 -0.279087 0.227648 0.179164 -0.330064 -0.391052 0.357458 -0.259029 -0.122258 -0.073646 -0.202824 0.044953 -0.128323 -0.204602 -0.013689 -0.079794 0.226515 0.300600 0.066314 -0.100359 -0.087712 -0.468956 0.048515 -0.514023 -0.108979 -0.230806 0.192124 -0.129629 0.130849 0.305823 -0.104427 -0.180701 -0.136013 -0.221240 0.037965 0.222065 -0.388386 0.111493 0.231993 0.176504 -0.304713 -0.146096 0.083896 0.199422 -0.073018 0.139812 0.076706 -0.126518 0.350490 -0.406040 -0.019049 -0.081151 0.208271 -0.474915 0.211685 -0.056098 0.019530 0.221213 0.202278 -0.091468 -0.328427 -0.126440 0.225166 -0.135440 0.096982 -0.094595 -0.280348 0.144676 -0.330754 -0.035258 0.100975 0.272305 0.206258 0.115711 0.460834 0.290264 -0.257334 0.334032 -0.077769 0.286614 0.010774 0.390320 -0.019870 -0.453362 0.066850 -0.118923 0.079829 -0.155690 -0.181996 0.116607 -0.028315 -0.200847 0.247680 0.141001 0.070038 -0.205651 -0.341940 0.116824 0.559033 0.471565 0.084915 -0.214229 0.310335 -0.294783 -0.063544 -0.141913 -0.179571 -0.100291 -0.405709 0.266028 0.139544 0.063414 0.025079 -0.024734 -0.136220 -0.190202 -0.452266 0.122577 -0.000427 -0.394409 0.107896 0.018366 0.236683 -0.308991 -0.258564 -0.007008 -0.120806 -0.000499 0.069995 -0.177780 0.272895 0.066671 -0.160149 -0.368282 -0.195106 0.117041 -0.163001 0.559560 -0.113320 0.120907 -0.160191 0.032154 0.175557 0.174863 -0.116985 0.324309 -0.021327 0.299628 0.308165 0.094773 -0.163999 -0.092792 0.076148 0.158136 0.117298 -0.225186 -0.116316 0.136730 0.171358 0.217700 -0.625808 0.076262 -0.178900 -0.467999 0.010366 0.108996 0.270244 -0.054312 0.231290 -0.115451 0.326886 0.234252 0.572817 -0.426558 -0.056430 0.131680 -0.099254 0.355159 -0.179135 -0.147441 0.298550 0.026370 0.315247 -0.147247 -0.068359 0.065919
A5 -0.235774 0.135850 -0.008419 0.046853 -0.036387 0.082587 0.168505 0.136099 0.061921 -0.140766 0.107561 0.207069 -0.219134 -0.157534 0.017687 -0.083208 0.116015 -0.346232 0.041614 0.319143 0.102027 -0.187952 -0.073114 0.094809 0.263483 0.012399 0.015202 0.114322 -0.120299 -0.058369 -0.082899 -0.219116 0.123108 -0.071073 0.038225 0.448691 -0.264045 0.043158 0.122059 0.090318 0.234112 -0.289738 0.063323 -0.108243 -0.038144 0.185313 0.217871 -0.031806 0.081005 -0.013282 -0.054793 0.037933 -0.083875 0.175489 -0.163384 0.178592 -0.128179 -0.209709 -0.481769 -0.296662 -0.269260 0.094489 0.038903 -0.183866 0.283942 0.246686 0.186293 -0.251740 0.242577 -0.000108 -0.101358 0.117357 -0.140486 0.096128 -0.030136 0.024507 -0.207303 -0.014420 0.078851 0.034555 0.072464 0.188909 0.028751 0.082262 0.105110 -0.390186 0.301962 0.158783 -0.101869 -0.000311 -0.043795 0.164216 -0.095191 0.434406 -0.074753 0.069372 0.152349 -0.227813 -0.002346 0.143524 0.147109 -0.229296 -0.078001 0.213468 0.006929 -0.067789 0.171047 0.054051 0.256473 -0.478486 0.412949 -0.136632 0.105363 -0.120960 0.176219 0.044366 0.211706 0.047922 -0.080267 -0.278699 0.226400 -0.205686 -0.232181 -0.025120 -0.228089 0.087120 -0.115843 -0.213001 0.077095 -0.007605 0.090278 0.133948 -0.000966 -0.153984 0.092774 -0.106485 -0.079304 0.003438 -0.113332 -0.301474 0.251945 0.129244 -0.183315 0.339005 -0.087113 0.004976 -0.077539 0.063924 -0.020578 0.208663 -0.265348 0.084649 0.208427 0.055138 -0.136384 -0.087510 -0.061479 0.293292 0.123070 -0.204638 0.188057 -0.060664 0.063169 -0.243873 0.119824 -0.101930 -0.139089 -0.507198 0.123019 -0.429386 0.092975 0.099916 0.051793 -0.015522 -0.230489 -0.323336 0.157696 -0.139646 0.196802 -0.104470 0.068601 -0.029832 -0.185336 -0.067358 0.040920 0.145292 0.032368 0.049685 0.367626 0.128212 -0.182413 0.361743 -0.033224 0.143783 0.024545 0.326119 -0.019464 -0.286066 0.229650 0.103056 0.156380 0.068046 -0.077536 0.076348 0.022623 -0.033505 0.021102 0.186972 0.194277 -0.076231 -0.062890 0.075321 0.323879 0.412527 0.004000 -0.213162 0.259263 -0.169469 -0.072887 -0.006234 -0.290098 -0.019599 -0.079942 0.106526 0.250249 0.061795 0.125279 0.140390 0.175023 -0.237524 -0.196757 0.144303 -0.001930 -0.098690 -0.101565 -0.116529 0.028480 -0.173085 -0.022340 -0.055024 -0.243123 -0.026777 -0.072199 -0.321276 -0.007889 0.103524 -0.143335 0.028195 -0.522783 0.213104 -0.110206 0.659997 -0.039856 -0.018718 0.004110 0.071661 0.276328 0.198013 -0.290215 0.160173 0.029807 0.186015 0.255172 -0.015915 -0.006023 -0.007259 0.092543 0.154396 0.017060 0.021889 0.089663 0.228633 0.034142 0.137346 -0.405869 -0.031222 -0.102898 -0.054434 -0.112147 0.138997 0.299135 -0.021144 0.192702 0.005109 0.316449 0.282739 0.327595 -0.455748 -0.074274 -0.115738 0.069545 0.297270 -0.173110 0.147295 0.053275 -0.259272 0.134588 0.155577 -0.099602 0.272053
B-3 -0.086790 0.053088 -0.259032 -0.290795 -0.073101 0.084121 -0.074182 0.087629 0.163424 0.020997 0.284916 -0.016128 0.267373 -0.124997 0.089246 -0.070204 -0.132745 0.092321 -0.229966 -0.072841 -0.173577 0.362272 0.217435 0.059519 0.036137 0.232095 -0.224325 -0.138554 0.024357 0.062148 0.113271 -0.053756 -0.371005 0.328454 0.249818 0.215150 -0.156601 -0.094351 0.079873 -0.132364 -0.231478 0.155497 0.002172 0.325544 -0.281398 0.075402 0.251365 -0.070566 0.040970 0.179632 -0.030007 0.143551 0.273344 0.177024 0.030588 0.358964 -0.108162 0.063075 0.200948 -0.108614 -0.043601 0.055757 -0.127683 -0.002945 0.019626 0.020119 -0.269861 0.003159 0.291607 0.183414 0.077588 0.142485 0.074663 -0.128260 -0.019595 -0.215467 0.072898 0.015594 -0.272616 -0.352549 -0.094826 0.073303 -0.082255 -0.153683 0.260917 0.153855 0.141517 -0.148743 -0.035640 0.064266 0.226919 0.012962 0.114866 -0.172804 -0.257401 0.080647 -0.052636 0.105603 -0.322097 0.036526 -0.155864 0.402228 0.177601 -0.180289 0.185595 -0.072442 -0.176859 -0.244782 -0.044667 0.104097 -0.267090 0.131625 -0.369780 -0.087016 -0.080466 -0.164033 0.301949 0.005308 -0.255287 -0.313688 0.154500 0.030492 0.088674 -0.322538 -0.035644 0.119523 -0.388417 -0.045786 0.021358 -0.113742 0.240320 -0.007468 0.149765 -0.099217 -0.261949 -0.305178 0.375016 -0.249887 -0.337737 0.067285 -0.110494 -0.257146 0.205423 0.196642 0.084967 0.005254 -0.032503 -0.277320 0.294016 0.170537 -0.218088 0.278081 0.095587 0.250977 -0.007616 -0.185772 0.117390 -0.053147 -0.388891 0.205131 -0.126757 0.228476 0.313956 -0.131074 -0.278645 0.013585 0.416118 -0.062735 -0.214444 0.333874 -0.120510 0.357556 -0.023932 -0.099344 0.001342 0.294689 -0.147362 -0.122734 -0.229912 0.148997 -0.498783 0.098081 -0.058148 0.013377 -0.403163 0.358686 0.319253 -0.109346 -0.050563 0.223855 0.002081 -0.131824 -0.294367 -0.152702 0.184717 0.560113 -0.273886 -0.266432 -0.007121 -0.263049 -0.197453 -0.219697 0.013512 -0.107854 -0.011450 0.053132 0.400206 0.028803 -0.300099 -0.396840 -0.567337 0.151572 -0.091730 -0.215003 -0.156212 0.157120 -0.001317 0.209943 0.177515 -0.083191 -0.349076 0.039291 -0.082012 0.000286 -0.142425 -0.228386 -0.012423 -0.299932 0.074811 0.123293 -0.015100 -0.236432 0.216591 -0.113470 -0.172311 0.097156 0.255632 0.109116 -0.570845 0.033822 -0.230647 0.095185 -0.225175 0.091351 0.579648 -0.096921 -0.166858 -0.336701 0.060000 -0.313940 -0.081734 0.103252 0.035756 0.079312 -0.060197 -0.142344 -0.645573 -0.052414 0.356432 0.402674 -0.268924 0.068458 0.355374 0.078072 -0.201571 0.215388 0.234816 -0.337846 -0.041620 -0.084364 -0.043120 -0.066366 -0.043057 0.090483 0.110153 -0.392893 -0.068184 -0.454119 0.148055 0.105839 -0.201471 0.079526 0.024551 0.113926 -0.073847 -0.187217 0.174434 0.118203 -0.108537 -0.137451 -0.248811 0.153248 0.033066 0.001496 0.186870 0.242966 0.213865 -0.110904 0.092632 -0.317756
C#5 -0.238388 -0.193593 0.063870 0.066258 -0.043745 -0.058779 -0.055534 -0.020883 -0.026770 0.082205 -0.072533 0.109075 0.030760 -0.294424 -0.145121 -0.109938 0.054603 -0.105624 -0.216277 -0.188206 0.188229 -0.004243 0.297844 0.308410 0.199645 -0.246742 -0.109288 0.179584 -0.196859 0.094900 0.228921 -0.042424 -0.180845 -0.001974 -0.226870 0.475476 0.090970 0.405801 0.040473 0.009864 0.352863 -0.281816 0.038649 -0.008183 0.284436 0.371934 0.299790 0.112188 -0.256350 0.058300 -0.022878 -0.027650 0.165853 0.316015 -0.052830 0.217579 0.205864 -0.238439 0.137264 -0.498828 0.110337 0.064050 -0.136719 -0.140024 0.211257 0.249519 0.126435 -0.438213 0.049862 0.407837 -0.090669 0.057003 0.123775 -0.268552 0.170071 -0.040823 -0.137053 0.171918 0.005204 -0.162354 -0.022838 0.548916 -0.017251 0.292531 0.384427 -0.321175 0.038238 0.007104 -0.119888 0.278994 -0.000798 0.421311 -0.102896 0.558238 0.005806 0.234117 0.269197 -0.125222 -0.033214 -0.058928 0.082244 -0.235279 -0.329510 0.099913 0.418191 -0.021950 -0.053155 -0.140807 0.012112 -0.178289 0.233246 -0.049620 0.039729 -0.305835 0.157650 -0.208894 0.377092 0.143660 -0.086911 -0.359732 -0.004774 -0.123658 -0.144142 0.035195 -0.332219 0.036727 -0.188364 -0.284848 0.244809 -0.183734 -0.128564 -0.079086 -0.367300 0.117106 -0.182425 -0.123271 -0.261203 -0.250012 -0.160219 0.029583 0.137960 0.200593 -0.053526 0.154872 -0.305202 0.166092 -0.145608 0.102048 0.440970 0.392268 -0.222540 0.258045 0.107623 0.053987 -0.038217 0.205497 0.188192 0.267105 -0.082628 0.158204 0.270070 0.038829 0.091816 -0.173265 -0.078648 -0.159141 -0.172209 -0.429409 -0.147108 -0.185291 -0.105082 0.194146 -0.125924 0.076732 -0.020986 -0.067312 -0.118804 -0.015141 0.172190 0.345891 -0.248977 0.033906 -0.155684 -0.237332 0.043497 -0.231997 0.229781 0.213664 0.345517 0.160249 -0.007372 0.119049 0.095268 0.522010 -0.017740 0.593198 0.100111 -0.178616 -0.038253 0.041876 0.012364 -0.115944 -0.109708 0.215609 0.070770 0.027563 0.153342 -0.157415 0.273951 -0.316612 -0.021741 -0.001791 0.213051 -0.030043 0.025317 -0.006982 0.201116 0.127372 0.500058 -0.009790 -0.211508 0.004875 0.050211 0.276211 0.093519 -0.503412 0.060199 0.211313 0.023251 -0.113491 -0.278139 -0.046506 0.280324 -0.264148 -0.197003 -0.041198 0.170808 -0.079336 0.198099 0.182783 -0.476785 -0.139365 -0.057300 -0.374624 0.278015 0.199723 0.101393 0.143938 -0.173835 0.079734 -0.174396 0.443777 -0.118364 0.046802 -0.015447 -0.114426 0.012357 0.106257 -0.453932 0.038081 0.240914 0.268875 0.465964 0.030337 0.058240 -0.194334 0.100467 -0.026369 -0.027932 0.010732 -0.151611 -0.081506 -0.315694 -0.329032 -0.191012 -0.333474 -0.193647 -0.076178 -0.069667 0.018508 0.057181 -0.182556 0.199258 -0.031832 0.328613 0.383379 0.246603 -0.349325 -0.060097 0.010589 -0.349095 0.456970 0.214640 -0.248368 0.369021 0.209240 0.429651 -0.098316 -0.139542 0.137589
F#5 0.039603 -0.105860 0.022548 -0.149800 -0.166357 -0.001519 0.139321 0.099696 0.212158 -0.155687 -0.305832 0.252689 -0.056465 -0.269189 -0.045550 -0.250697 0.316342 -0.479812 -0.104317 0.339245 0.444413 -0.172130 0.136550 0.165839 0.251552 -0.236875 0.030810 0.126340 -0.370980 0.186243 0.025991 -0.191985 -0.128589 -0.223554 -0.126866 0.705005 -0.172042 0.302364 -0.031795 0.088256 0.339868 -0.480817 0.043881 -0.308925 0.110608 0.511591 0.039615 0.195940 -0.054130 -0.244747 -0.129600 -0.047469 -0.099408 0.427655 -0.237425 -0.011011 -0.083032 -0.217410 -0.142495 -0.376271 -0.059123 0.109091 -0.047327 -0.294361 0.255688 0.459382 0.353075 -0.605639 0.155921 0.174363 -0.342885 0.046109 -0.208784 -0.271292 0.133404 0.011679 -0.399549 0.180226 0.201343 0.086239 -0.019690 0.356760 -0.009355 0.194913 0.155942 -0.558245 0.112981 0.113724 0.097875 0.036153 -0.057497 0.142922 -0.253474 0.412054 -0.017645 0.054569 -0.006549 -0.312206 0.077312 0.030578 0.114939 -0.278147 -0.182818 0.203588 0.103170 0.135522 0.139381 -0.022621 -0.108298 -0.305482 0.475685 -0.152228 0.107281 0.052319 0.377430 0.215465 0.146953 0.033523 0.192653 -0.257302 -0.163655 -0.300719 -0.372536 0.158324 -0.347016 -0.033812 -0.140488 -0.256435 0.027072 -0.179252 -0.126622 -0.006316 -0.221573 -0.168991 0.139464 0.175477 -0.259964 0.029777 -0.013504 -0.225191 0.303024 0.078827 -0.317493 0.435469 -0.295301 0.379402 -0.013810 0.168974 0.260387 0.124628 -0.024425 0.089545 0.075638 -0.065463 0.129255 -0.115352 -0.211735 0.245605 0.322181 -0.290640 0.365017 0.028497 -0.079104 -0.304837 0.257758 -0.158638 -0.532510 -0.570629 0.046399 -0.512826 -0.142631 0.205444 -0.216989 0.019175 -0.156790 -0.044310 -0.107469 -0.144747 -0.008044 0.171857 0.049431 -0.253804 0.000258 -0.174906 0.103805 -0.167528 -0.057402 0.104774 0.357299 0.170438 0.004792 0.264556 -0.031184 0.392087 -0.078225 0.455767 0.048002 -0.158699 0.159354 0.340575 0.250270 0.001492 -0.065266 0.047844 -0.033345 0.260795 -0.059586 0.126191 0.216668 -0.194206 -0.120140 0.012786 0.098873 0.123230 0.061974 -0.178428 0.265125 -0.000759 0.384401 -0.108179 -0.166179 0.131608 0.198855 0.070085 0.323241 -0.100446 0.096116 0.064554 0.209434 -0.410380 -0.113344 0.259110 0.199206 -0.048472 -0.253695 -0.064518 -0.087590 -0.217341 0.093915 0.059937 -0.453664 0.030182 -0.148723 -0.451116 -0.102990 0.271251 0.001606 0.084911 -0.698861 0.247360 0.084470 0.481747 0.038050 0.018876 -0.125064 0.018648 0.025386 0.112943 -0.635626 0.067527 -0.154704 0.019150 0.531202 -0.164775 0.199391 -0.147576 0.049207 -0.010147 -0.117074 0.052213 -0.052643 0.396760 -0.136343 -0.176683 -0.238590 -0.427101 -0.147253 0.123691 -0.033970 0.059467 -0.005956 -0.009147 0.046361 0.055241 0.215669 0.504271 0.146335 -0.384473 -0.188099 -0.013507 -0.182594 0.299671 -0.125110 0.015025 0.105957 -0.110005 -0.108201 0.168031 0.086999 0.271295
F#3 0.174476 -0.130240 -0.399288 -0.250871 -0.219757 -0.147694 0.337832 -0.038837 0.101105 0.087333 -0.085566 0.099364 0.024712 0.048373 0.041779 -0.219223 0.201984 -0.177166 -0.310287 -0.046792 0.081009 0.080355 0.385989 -0.252084 0.104665 -0.224572 -0.129554 0.122363 -0.319418 0.283071 0.074748 -0.008740 -0.392206 -0.224619 0.081226 0.186411 -0.079687 0.442569 0.303778 0.042657 0.169431 -0.407180 -0.074078 -0.263937 0.064039 0.380231 0.111189 0.044397 0.105347 -0.142423 0.053847 0.120297 0.129773 0.361942 -0.154934 -0.050446 0.260503 0.194838 0.109590 -0.168318 -0.090846 -0.261339 -0.387205 -0.072299 0.192555 -0.013242 -0.015983 -0.299762 -0.031992 0.005522 -0.239657 0.103539 -0.185320 -0.276861 0.049414 0.104802 -0.092563 0.047284 0.130280 -0.158577 0.299612 0.034055 -0.160058 -0.106250 0.204080 -0.267859 -0.016086 0.210198 -0.110510 0.090684 -0.172582 -0.080534 -0.066436 0.213653 -0.245338 0.147031 -0.236075 -0.016762 0.071262 0.021217 -0.126608 0.008594 -0.114296 -0.037264 0.206739 -0.029660 -0.046127 -0.086193 -0.327943 0.116410 0.124603 -0.023084 -0.119942 -0.039100 0.275603 0.037650 0.264720 -0.018135 0.151438 -0.128748 0.111768 0.164872 0.155312 -0.258984 -0.212830 0.008631 -0.250112 -0.111732 0.260685 0.011637 0.039196 -0.232353 0.076307 -0.263088 -0.015215 0.259653 -0.214086 0.098513 -0.061084 0.099629 0.007841 -0.137454 0.073470 0.157019 -0.160698 0.288440 0.221463 0.066690 0.216487 0.046116 -0.044989 0.108764 -0.187387 -0.043697 0.048536 0.015829 0.023340 0.119581 -0.021227 -0.211289 0.107032 0.328051 -0.084524 0.020578 -0.159511 0.051501 -0.310171 -0.193116 -0.468579 -0.208903 -0.036920 -0.001576 -0.192583 0.006052 0.041480 0.119901 -0.362793 -0.148013 0.000346 0.140778 -0.224950 0.025832 0.210275 0.031378 -0.232877 0.018996 -0.103787 0.061659 0.096726 -0.027921 0.061440 0.075516 -0.258474 -0.165865 0.202076 0.456690 -0.083665 0.000513 0.123981 -0.163772 -0.174002 0.040337 -0.006421 0.140140 0.165126 0.354372 0.014885 0.137711 0.146838 -0.253197 -0.137061 0.078121 -0.093004 -0.298504 -0.175397 0.031550 -0.162441 0.275665 0.212144 -0.065769 -0.411835 0.167423 0.466513 -0.119416 0.145491 -0.316097 0.058990 -0.074800 0.293628 -0.080792 -0.032597 0.237385 0.249474 0.242807 -0.501548 -0.212740 0.090345 0.270672 -0.115766 0.016661 -0.395484 0.036535 -0.156404 0.039745 0.210979 0.062562 0.007693 0.117316 -0.441575 -0.060691 -0.198328 0.193058 -0.107480 0.019879 0.148472 0.007299 -0.437354 -0.040785 -0.074192 0.014449 -0.133753 0.051026 0.405110 -0.080139 0.154172 0.191317 -0.132536 -0.110926 -0.029607 -0.072290 0.160066 0.221465 -0.493727 -0.220854 0.138559 -0.470388 0.149861 0.227228 -0.171363 0.192622 -0.052628 -0.175009 0.055817 0.112798 -0.044740 0.162147 -0.253633 -0.245569 0.048537 -0.179230 -0.350782 0.155026 -0.003949 0.253464 -0.049646 0.189075 -0.103350 0.228949 0.010117 0.146050
C3 0.197237 0.225728 -0.313247 -0.312692 -0.094857 -0.044211 0.234606 0.057138 0.149440 0.134880 0.048396 0.240909 -0.078491 0.104622 0.101356 -0.019594 0.084786 -0.392930 -0.111655 0.115205 0.141843 0.097432 0.019965 -0.122268 0.011122 -0.065699 -0.207040 -0.048410 0.038015 0.588546 -0.307605 0.050478 -0.063904 -0.067283 0.089748 0.261360 -0.203170 0.036418 0.028097 -0.115464 -0.165918 0.008251 -0.162891 0.052491 -0.159107 -0.117990 -0.136005 0.063888 0.414194 -0.211870 -0.069349 0.060324 0.154567 0.193432 -0.338177 0.194198 -0.167077 0.089031 0.145721 -0.151101 -0.349821 -0.051579 0.055137 -0.256708 -0.027659 -0.302734 -0.571808 -0.124408 -0.162117 -0.066188 0.193631 0.181039 -0.066609 -0.081119 -0.088316 0.092035 -0.008643 -0.125104 -0.118506 0.057953 -0.105252 -0.047588 -0.599420 0.044484 -0.176773 0.086665 0.045424 -0.153328 0.083630 0.035460 -0.069284 -0.075471 0.262169 0.077638 -0.243348 0.117559 0.012003 0.260747 0.206286 0.119672 -0.159605 0.101118 0.125194 0.028627 -0.366900 0.043780 0.211233 -0.053890 -0.031602 0.065396 -0.190722 0.106981 -0.255449 -0.132248 0.112167 -0.138414 -0.114495 0.077081 -0.077190 -0.045068 0.400258 0.174607 0.206493 -0.329584 -0.175206 -0.049760 -0.139426 0.034625 -0.076689 -0.007898 0.259855 0.024807 0.384991 -0.266675 0.151198 0.003404 0.017001 -0.300409 0.096134 0.045114 0.008898 -0.379443 0.565963 0.248257 0.009386 0.062302 0.359662 -0.290775 -0.097883 -0.278772 -0.043200 -0.013679 -0.098777 0.121273 -0.182449 -0.151770 -0.142279 -0.141707 -0.113309 -0.030433 -0.180970 0.166193 0.146159 -0.211558 -0.122686 0.057283 -0.013480 0.031468 -0.153580 0.092740 -0.061396 0.000643 0.019691 -0.256738 -0.076089 0.171699 0.123240 -0.222084 -0.113676 -0.266198 -0.356336 0.106716 0.051024 0.307668 -0.012675 0.298439 -0.180490 0.037823 0.075841 0.024813 -0.096805 0.099452 -0.363259 -0.172257 0.104674 0.031911 -0.202145 -0.140795 0.078009 -0.375829 -0.112573 -0.171343 -0.169000 -0.011825 0.015383 0.051662 -0.008049 0.260300 0.047715 -0.166967 -0.357889 0.158307 0.146531 0.026157 0.006023 -0.040544 -0.237204 -0.053151 -0.253470 -0.183536 -0.223552 0.212356 0.010449 -0.105294 0.118579 0.196595 -0.125571 -0.475564 -0.018712 -0.103045 -0.136366 0.466083 -0.039018 0.106902 -0.260904 -0.063372 0.069622 0.014748 -0.294474 -0.009430 -0.088872 0.238397 0.113119 0.385047 0.008725 0.002361 -0.218812 -0.376418 -0.179075 -0.185298 -0.014060 0.007441 -0.020464 0.049114 -0.131299 -0.019813 -0.136364 0.032784 0.197702 0.056847 -0.584062 0.008965 0.241726 -0.062610 0.000814 0.393232 -0.304751 0.028999 0.111275 -0.455210 0.045799 0.535720 -0.078035 0.214031 0.020897 -0.128985 0.281349 -0.081117 -0.016939 0.035318 -0.041655 -0.143522 -0.013418 -0.031568 -0.013963 0.105618 -0.098448 -0.122357 0.073956 0.037643 -0.157943 -0.090880 -0.263716 0.051323 -0.064951 0.137367 -0.249468 0.064717 0.140387 0.066466
C#4 -0.195099 -0.306433 -0.033006 -0.065684 0.023088 -0.146070 -0.016851 -0.183858 -0.068641 0.269410 0.002460 -0.030759 0.020266 0.032441 0.008616 -0.034125 -0.055506 0.142441 -0.240266 -0.367825 -0.318736 0.163413 0.332624 0.150265 0.135451 -0.006394 -0.143440 0.138032 -0.142539 0.118401 0.250945 0.114232 -0.190267 -0.115334 0.100748 0.157863 0.200155 0.443381 0.238035 0.000483 0.264297 -0.113786 -0.132178 -0.092916 0.235099 0.244661 0.407880 -0.191998 -0.112708 -0.003690 0.033881 -0.014596 0.113348 0.230205 0.014675 0.327981 0.298196 0.205075 0.226952 -0.266581 0.016798 -0.232113 -0.218728 0.213058 0.106981 -0.035246 -0.067440 -0.259763 0.131428 0.292821 -0.056745 0.095837 0.095697 -0.108299 0.041950 -0.066760 -0.086802 0.080362 0.066764 -0.254574 0.254449 0.206922 0.015061 0.078205 0.505579 -0.097503 -0.019025 0.044701 -0.200235 0.341478 -0.059303 0.330671 -0.064949 0.344537 -0.200840 0.241662 0.073105 -0.075620 -0.210686 -0.005042 -0.072408 -0.006532 -0.196816 -0.205725 0.480429 -0.156570 -0.223300 -0.247775 -0.098057 -0.041986 -0.033303 -0.056252 -0.209625 -0.347663 0.171329 -0.207514 0.388915 0.188423 0.134923 -0.302809 0.090409 0.105140 0.261303 -0.258402 -0.109544 -0.035071 -0.117129 -0.358525 0.366632 -0.110590 0.000101 -0.157316 -0.131312 -0.056960 -0.352718 -0.100129 -0.143399 0.012107 -0.201652 0.322016 -0.106297 0.025215 0.104920 0.031884 -0.247306 0.198767 -0.097753 -0.142659 0.325163 0.196534 -0.060183 0.239252 0.090279 0.226336 0.011909 0.221709 0.318334 0.075700 -0.322339 0.143186 0.087821 0.206558 0.077151 0.066236 -0.234734 -0.181192 0.152792 -0.135104 -0.270488 0.188040 0.009809 0.207900 0.001578 0.270591 -0.128369 0.054421 -0.196886 -0.046669 0.033368 0.474543 -0.236259 0.140061 -0.000316 -0.087923 -0.239520 -0.214924 0.300708 -0.001601 0.004803 -0.091301 0.071029 0.010139 0.073689 0.206141 0.225728 0.491231 0.074980 0.284549 -0.136647 -0.252288 -0.164268 0.084734 -0.214253 0.180609 0.091533 0.046382 0.154267 -0.130641 0.001046 -0.148926 0.110808 -0.037506 0.027199 -0.160457 -0.155601 0.128810 -0.204714 0.291234 0.283559 -0.064812 -0.259379 0.059395 0.279229 -0.006687 0.062807 -0.555847 -0.138551 0.079149 -0.000614 0.117323 -0.199001 -0.081477 0.274273 -0.004416 -0.243776 -0.013574 0.308593 0.281242 -0.081472 0.383686 -0.222391 -0.074837 0.069867 -0.064945 0.411005 0.070687 0.003460 0.132358 0.080779 -0.046493 -0.263659 0.201442 -0.343090 -0.010918 0.192266 -0.059377 -0.456052 -0.003031 0.052460 -0.053556 0.311453 0.038280 0.151428 -0.029741 0.014028 -0.058113 0.306558 -0.121485 0.087546 -0.065760 -0.086660 -0.227016 -0.442658 -0.275366 0.072361 -0.365133 -0.042717 0.033097 -0.041261 0.086321 -0.097837 -0.192096 -0.009221 0.151476 -0.068133 0.218465 -0.120235 -0.205387 -0.082318 0.020200 -0.254303 0.143770 -0.085921 -0.056132 0.226888 0.219363 0.416018 -0.129057 -0.096607 0.143472
A2 0.053161 -0.100884 -0.173932 -0.180180 -0.074611 -0.193973 0.163713 0.063160 -0.106124 0.173385 -0.082055 0.266413 -0.254188 0.261604 -0.008409 0.014203 0.229301 -0.324906 -0.052737 -0.146795 0.009538 0.104266 0.073036 -0.044263 0.062800 -0.261222 -0.270545 0.056692 -0.053197 0.356057 -0.050983 0.160889 -0.075112 -0.278742 -0.007446 0.179308 -0.119003 0.336056 0.074331 -0.018570 0.200434 -0.085495 -0.116295 -0.121483 0.103451 0.099700 0.047002 0.046040 0.214284 -0.137872 0.006198 0.136153 0.183358 0.155444 0.025398 0.195471 0.184383 0.191591 0.102708 -0.266229 -0.107515 -0.191302 0.001456 -0.100544 0.018056 -0.289215 -0.297529 -0.273793 -0.125030 0.204058 0.048730 0.174263 -0.159775 -0.117297 0.136737 0.109190 -0.012018 0.096012 0.048235 -0.133979 0.122742 0.109340 -0.327501 -0.008244 0.040232 -0.025319 -0.073265 -0.154119 0.025553 0.128366 -0.225319 -0.023688 -0.012889 0.311672 -0.019201 0.136151 0.096029 0.054492 0.102980 0.135168 -0.002701 -0.022773 -0.141598 -0.017954 0.112827 -0.005712 0.109699 -0.020581 -0.031964 -0.026558 -0.050858 -0.031894 -0.136062 -0.380099 0.178033 -0.081716 -0.006445 0.162197 0.019966 -0.061920 0.214582 0.137322 0.143484 -0.250134 -0.171134 -0.173850 -0.137397 -0.135414 0.227362 -0.115764 0.080529 -0.150535 0.151195 -0.227714 -0.100261 0.033495 -0.178703 -0.138024 -0.017581 0.089506 0.031593 -0.180136 0.339561 0.148479 -0.235160 0.196851 0.123233 -0.207694 0.097743 -0.085296 -0.006134 0.078613 0.010398 0.153297 -0.097836 0.245129 0.129626 -0.167666 -0.090234 -0.015899 -0.009581 0.159948 0.010364 -0.094232 -0.168541 0.075656 -0.039598 -0.041265 -0.177083 0.172498 0.062490 -0.027460 0.045912 -0.047856 -0.214350 0.006992 -0.238050 -0.194359 0.086558 0.011325 -0.180321 0.118579 0.074737 -0.023712 0.003357 -0.129764 0.072638 0.117536 0.057178 -0.109439 0.146262 0.024662 -0.115580 -0.016262 0.066929 0.242122 -0.084179 0.099944 0.033902 -0.313025 -0.120391 0.041985 -0.179381 0.140293 0.033055 -0.083924 0.022249 0.099173 0.287844 -0.205001 0.127883 0.124925 0.273829 0.028209 -0.044126 -0.002062 -0.265737 0.080380 -0.043157 -0.073320 -0.128014 0.252888 0.081907 -0.073321 0.202958 -0.193025 -0.115742 -0.114696 0.150550 -0.093388 -0.093434 0.353426 -0.039135 0.029515 -0.153847 -0.125100 0.065389 0.042146 -0.046434 0.231483 -0.055214 0.055425 0.197729 0.139021 0.161382 0.125639 0.003285 -0.171701 -0.014283 0.026746 -0.046338 0.013498 -0.277939 0.143121 -0.008158 -0.031323 -0.051258 0.034672 -0.042601 -0.295616 -0.078423 -0.096734 0.100055 -0.045354 -0.013897 0.080842 -0.020483 -0.050297 0.191283 -0.248893 0.038353 0.172552 -0.349900 0.164298 0.051461 -0.161305 0.206180 0.111061 -0.173312 0.097498 -0.043221 -0.210292 0.026067 0.012007 0.115308 0.136783 -0.272722 -0.189595 0.011591 0.026350 -0.245560 0.078779 -0.056403 0.070673 0.067187 0.168893 0.065458 -0.053978 0.043969 0.325994
E-4 -0.035274 0.129571 -0.072091 -0.234904 -0.106313 0.027244 -0.021604 -0.068329 0.371843 0.094939 0.018372 -0.204406 0.370825 -0.363749 0.089802 -0.223505 -0.137256 0.129515 -0.227557 0.045741 -0.056146 0.129118 0.297877 0.109050 -0.006920 0.099865 -0.002734 -0.057149 -0.112176 0.369452 0.009230 -0.088894 -0.468689 0.245876 0.037938 0.381558 -0.154788 -0.050141 0.067833 -0.064771 -0.315299 0.039900 0.009735 0.201791 -0.141120 0.088448 0.035928 -0.038763 -0.056820 0.000918 -0.132395 -0.099364 0.119313 0.229832 -0.268515 0.095653 -0.258161 -0.031463 0.345453 -0.047527 -0.123275 0.137167 -0.167951 -0.149074 -0.071242 0.240096 -0.218483 -0.077445 0.135440 0.006755 0.105410 0.122422 0.236873 0.053371 -0.256859 -0.169636 0.010546 -0.184738 -0.104556 -0.035257 -0.261663 -0.055713 -0.216176 0.118993 0.198066 -0.018277 0.009836 -0.040225 -0.072411 0.044267 0.186250 0.099473 0.087059 -0.048596 -0.369621 0.161266 -0.137025 0.086357 0.002800 -0.097308 -0.297686 0.283094 0.182173 -0.066122 -0.119128 -0.016885 0.006370 -0.346776 -0.129343 0.196707 -0.169025 0.082949 -0.335873 0.194110 0.043986 -0.182143 0.185281 -0.010685 0.008897 -0.167250 -0.053484 -0.002632 0.147766 -0.316888 -0.171155 0.051646 -0.098952 -0.062712 -0.157213 -0.073681 0.127023 0.139461 0.112426 -0.118000 0.032106 -0.073774 0.227227 -0.257055 0.013036 0.165310 -0.011814 -0.265015 0.135258 0.190251 0.047779 -0.046015 0.191946 -0.225395 0.120901 -0.008902 -0.069636 0.126769 -0.017440 0.069917 0.099613 -0.439482 -0.042985 0.069798 -0.264791 0.058897 -0.098801 0.121104 0.141393 -0.074652 -0.083129 -0.174288 0.146312 0.073353 -0.107017 0.111304 -0.439227 0.372306 -0.076677 0.090451 0.116122 0.409217 0.136799 -0.045527 -0.335230 0.195030 -0.545826 0.000852 0.039562 0.158872 -0.254854 0.228033 -0.023921 -0.112196 0.020393 0.248953 -0.118877 -0.159717 -0.186008 0.081345 0.206503 0.252773 -0.071424 -0.192683 -0.093960 0.048088 -0.127999 -0.352326 -0.067941 -0.083454 0.134286 0.238437 0.178971 0.035350 -0.415973 -0.178351 -0.538780 0.124101 -0.225106 -0.295614 0.059717 0.116820 -0.108788 0.220415 0.295636 -0.219454 0.006338 -0.086897 0.079436 -0.021110 -0.112527 -0.072009 -0.283359 -0.318883 -0.123123 -0.029119 0.054039 -0.109962 0.144179 0.021090 -0.292919 0.050348 0.130685 -0.042804 -0.365903 0.084672 -0.313764 0.150364 -0.169718 0.065174 0.297311 -0.085020 -0.239847 -0.173761 -0.024494 -0.314547 0.029660 -0.073208 0.241629 -0.069914 -0.084587 0.041307 -0.614752 -0.148190 0.242358 0.480263 -0.313075 0.134678 0.321612 0.004030 -0.089108 0.101484 -0.009260 -0.112230 -0.150257 -0.227217 -0.225589 0.066097 -0.050090 -0.206426 0.119015 -0.465137 -0.077768 -0.354474 0.165453 -0.017404 -0.380894 0.097320 -0.229737 0.155939 -0.175993 -0.000627 0.141208 0.024936 -0.067486 0.064000 -0.175435 0.056284 -0.105384 -0.187116 0.117221 0.183063 -0.075626 0.018958 0.118785 -0.399944
E-5 -0.130505 0.247845 0.044004 -0.117178 -0.101548 0.086194 0.003916 0.065252 0.390755 -0.094016 0.001167 0.031666 0.204016 -0.553111 -0.030326 -0.230448 -0.013464 -0.243947 -0.159853 0.311019 0.353172 -0.065774 0.172262 0.296485 0.142120 -0.059277 0.030981 0.021294 -0.159932 0.346787 -0.083730 -0.237210 -0.272060 0.227398 -0.176652 0.766318 -0.238031 -0.021583 -0.051980 -0.024932 -0.098587 -0.153230 0.121422 0.162382 -0.086931 0.229506 0.028109 0.151475 -0.084474 -0.008302 -0.197235 -0.101720 0.067012 0.330397 -0.360213 0.124574 -0.345195 -0.400274 0.081545 -0.355639 -0.166370 0.346318 -0.005145 -0.413007 0.108674 0.464883 -0.017447 -0.313367 0.136353 0.092783 0.027474 0.110594 0.190236 -0.039490 -0.162306 -0.107655 -0.161369 -0.127072 -0.119007 0.076726 -0.404641 0.281747 -0.240507 0.324807 0.106968 -0.287988 0.151614 -0.031885 0.011629 0.052732 0.183757 0.252019 0.038279 0.294261 -0.222798 0.163816 0.140378 -0.018499 0.131682 -0.029560 -0.075669 -0.025837 0.042981 0.218534 -0.193126 0.077119 0.201099 -0.193036 0.068026 -0.098763 0.145147 0.008001 -0.080848 0.128160 0.105904 -0.147789 0.225543 0.004158 -0.127191 -0.294189 0.015507 -0.245708 -0.233597 -0.081750 -0.427090 0.133608 -0.137083 -0.120859 -0.182366 -0.122402 0.073958 0.240697 -0.058622 -0.023369 0.192801 -0.145800 0.050351 -0.439561 0.016951 -0.141101 0.236943 -0.061714 -0.000906 0.406152 -0.029556 -0.037657 0.112575 -0.056048 0.152634 0.154284 -0.252056 0.157651 0.085542 -0.020260 -0.038644 -0.392065 -0.170118 0.293890 -0.003925 0.016864 0.129866 -0.048767 0.170584 -0.360912 0.098795 -0.222460 -0.133684 -0.357042 0.085092 -0.304539 -0.412881 0.348297 -0.115985 -0.062680 0.061021 0.157998 0.291689 -0.062102 -0.121925 0.034444 -0.418908 -0.135237 -0.144023 0.022425 0.030187 0.200813 -0.070807 0.077621 0.389537 0.380950 -0.222237 0.088574 -0.125622 0.382185 -0.010465 0.357429 -0.029339 -0.526955 0.061521 0.262968 0.086647 -0.379187 -0.061336 -0.036731 0.080659 0.167416 0.108527 0.089109 -0.087525 -0.263800 -0.565698 0.155214 0.091063 0.023191 0.187217 -0.090800 0.250945 -0.011807 0.323530 -0.167102 -0.066489 -0.064707 -0.113705 0.227037 0.037713 0.016558 -0.106939 -0.148978 -0.076507 -0.267614 -0.106872 0.016340 0.129187 -0.204585 -0.252669 0.032596 0.033885 -0.346920 -0.119640 -0.047771 -0.493140 0.081277 -0.207298 -0.255049 0.082095 0.053885 -0.193452 -0.156522 -0.379218 -0.083704 0.055207 0.344712 0.318947 -0.020245 -0.238115 0.008414 -0.059872 0.071694 -0.247073 0.542268 -0.336766 0.307831 0.592842 0.012125 -0.032245 0.007364 -0.110320 0.051900 -0.180670 -0.164912 -0.229994 0.298770 0.120168 -0.160119 -0.259351 -0.362752 -0.194275 -0.390554 0.127917 -0.031094 -0.091964 0.057529 0.000006 0.008010 0.248349 0.287917 0.488027 -0.280027 -0.087321 0.037043 -0.180627 0.328674 -0.049852 -0.293689 0.202930 0.067886 -0.015161 0.054862 0.039750 -0.204569
G#4 -0.104995 -0.055774 0.045419 0.050641 0.000925 0.001815 -0.123114 -0.228885 0.069175 0.234213 -0.074225 -0.125354 0.325730 -0.425890 -0.088329 -0.113144 -0.205652 0.167293 -0.284885 -0.251078 0.161748 0.052464 0.353251 0.251156 -0.009386 -0.107454 -0.042832 0.046892 -0.015804 0.361892 0.109061 0.031445 -0.322745 0.248743 -0.191426 0.259055 0.236986 0.218705 0.011849 -0.121008 -0.076047 -0.041430 -0.029861 0.218658 0.185558 0.049668 0.078321 0.122688 -0.189936 0.039443 -0.082025 -0.171141 0.209514 0.245185 -0.293285 0.179821 0.034788 -0.262486 0.510261 -0.269045 -0.002668 0.141917 -0.147181 -0.172168 -0.004203 0.127169 -0.213998 -0.227475 -0.125750 0.273165 0.173186 0.001279 0.394243 -0.192989 -0.058155 -0.087563 0.051191 -0.050677 -0.128213 -0.011822 -0.275537 0.354393 -0.302890 0.466707 0.245669 -0.089468 -0.018672 -0.063272 -0.208092 0.253344 0.164801 0.444299 0.195411 0.291991 -0.185084 0.296862 0.188026 0.239391 0.123681 -0.220538 -0.218618 -0.102461 -0.178135 0.024104 0.050610 0.005971 -0.060040 -0.282428 -0.040785 0.146024 -0.036914 0.154505 -0.103791 -0.071657 0.067706 -0.414985 0.240838 0.121827 -0.092896 -0.229027 0.002457 0.046055 0.136365 -0.051715 -0.259930 0.010776 -0.077997 -0.063199 0.023319 -0.045896 -0.060191 0.039937 -0.273058 0.201698 -0.025174 -0.079556 -0.146350 -0.478445 0.073180 0.258078 -0.012789 0.031714 0.273249 0.034269 -0.155582 -0.008459 0.103724 -0.015592 0.279467 0.161967 -0.161965 0.120426 -0.081214 0.021276 -0.000293 -0.043334 0.123056 0.241841 -0.232619 0.347207 0.067597 0.003519 0.173608 -0.110336 -0.123306 -0.187704 -0.050783 -0.061893 -0.206746 -0.028528 -0.295856 0.193260 -0.152410 0.084760 0.219496 0.230608 0.134995 0.117721 -0.022724 0.300907 -0.534993 0.166852 -0.098593 0.049882 -0.013418 -0.018917 -0.000352 0.164550 0.226577 0.207694 -0.224136 0.033383 -0.050794 0.483540 0.103870 0.234847 0.119653 -0.145303 -0.222317 -0.060351 -0.077627 -0.367865 -0.128730 0.187423 0.147549 0.119728 0.210076 -0.245766 -0.032542 -0.198307 -0.370656 -0.038069 -0.017252 -0.286596 0.109700 0.107896 0.047981 0.131095 0.463367 -0.163983 -0.033086 -0.140304 0.046308 0.231936 -0.114324 -0.260110 -0.083326 -0.095488 -0.337089 0.065244 -0.322674 0.001442 0.281774 -0.147534 -0.265264 0.051253 0.238137 -0.017482 0.134435 0.080161 -0.449677 0.010994 -0.047110 -0.067471 0.176234 0.012823 -0.022808 0.033283 0.079264 -0.191635 -0.177656 0.091432 0.071113 -0.066812 -0.098677 -0.086334 -0.191754 -0.037899 -0.119196 0.213392 0.006656 0.352996 0.385036 0.053046 0.117352 -0.067399 -0.161476 0.076226 -0.061287 -0.220944 -0.298940 -0.019377 -0.210279 -0.478192 -0.077444 -0.263497 -0.145964 -0.194293 0.095175 -0.127569 -0.088929 -0.164948 0.048378 -0.067561 0.048423 0.284844 0.217276 -0.096175 0.047399 0.240111 -0.318385 0.208883 0.186499 -0.436767 0.326023 0.324311 0.183214 -0.126443 -0.083404 -0.219645
G2 0.173602 0.069365 -0.279768 -0.270596 -0.134576 -0.213513 0.189441 0.195316 -0.056685 0.095539 0.027209 0.248085 -0.167247 0.179434 -0.049832 -0.028387 0.294888 -0.210354 -0.004588 0.012011 0.042534 0.119211 -0.064396 -0.206674 -0.001343 -0.186821 -0.198980 0.003318 -0.041323 0.247133 -0.110086 0.095612 -0.105318 -0.151151 0.003748 -0.034120 -0.248424 0.166112 0.133062 0.048467 -0.010130 -0.022056 -0.010562 0.043858 -0.062203 0.011467 -0.065348 0.087322 0.277267 -0.014950 0.062563 0.237225 0.188522 0.140004 -0.029580 0.010131 0.199719 0.201531 0.088595 -0.047052 -0.138627 -0.209252 -0.119935 -0.198538 -0.107834 -0.283734 -0.217596 -0.027595 -0.099389 -0.094160 0.038539 0.123897 -0.171608 -0.034333 -0.018041 0.189526 0.234305 0.001433 0.011916 -0.180761 0.063720 -0.037609 -0.283016 -0.249083 -0.080161 -0.021015 -0.134514 -0.094544 0.117339 -0.020488 -0.143395 -0.317243 -0.000665 0.064684 -0.139732 0.023373 -0.052599 0.168030 0.259145 0.124374 -0.102730 0.160875 -0.008379 -0.054049 -0.101939 0.011538 0.182218 0.010504 -0.047909 0.149246 -0.139591 0.018585 -0.224796 -0.080964 0.140448 -0.016527 -0.061531 0.005952 -0.035226 0.111681 0.231684 0.202582 0.105345 -0.283929 -0.127958 -0.114340 -0.182168 0.023235 0.148417 -0.054086 0.184911 -0.106015 0.345684 -0.157372 0.085786 0.070340 -0.063936 -0.076389 -0.020850 0.089908 0.025461 -0.256162 0.320425 0.098737 -0.042925 0.036923 0.219324 -0.241251 0.022944 -0.112854 -0.036728 0.079742 -0.092382 0.021419 -0.095646 0.086102 0.041562 -0.127479 -0.084629 0.020478 -0.067914 0.197488 -0.026203 -0.059802 -0.246121 0.229558 -0.043286 0.091423 -0.193032 0.110678 -0.041943 -0.103594 0.069020 -0.190178 -0.045096 0.049205 -0.182686 -0.171167 0.092248 -0.214989 -0.219264 0.020306 0.137335 0.027270 -0.065400 0.026150 -0.029993 0.136687 -0.028983 -0.045000 0.129043 -0.082878 -0.241242 -0.308126 0.090327 0.195033 -0.119823 -0.191004 0.163682 -0.221638 -0.228771 0.008539 0.044309 0.032289 0.111257 0.050991 0.004325 0.146481 0.190133 -0.294342 -0.100611 0.267167 0.104141 -0.129695 -0.027601 0.003367 -0.306894 0.061855 -0.127209 0.024980 -0.112771 0.231789 0.045631 -0.105436 0.036124 0.025826 -0.063920 -0.178781 0.223712 -0.071644 0.141637 0.229492 -0.059749 0.203680 -0.104463 0.008736 0.010296 0.037664 -0.131141 0.053357 -0.012819 0.073902 -0.080563 0.248925 0.062095 0.031849 -0.023373 -0.217832 -0.113363 -0.065763 0.010037 -0.084239 -0.092416 0.156082 -0.075886 -0.045326 -0.125580 0.060238 0.109246 -0.114403 -0.325558 -0.136739 0.104862 0.023342 -0.061594 0.306476 -0.247553 -0.114028 0.108135 -0.197540 0.088808 0.131840 -0.313085 0.264831 0.125070 -0.120767 0.343764 0.005947 -0.128349 0.217310 -0.098581 -0.140062 0.011352 0.030115 0.112140 -0.028850 -0.242362 -0.050797 0.058853 -0.060055 -0.226947 0.027466 0.001226 0.204282 -0.122368 0.105876 -0.088164 0.039309 0.076939 0.065563
B2 0.159092 -0.041495 -0.123075 -0.215658 -0.034636 -0.215580 0.235535 -0.182873 0.085939 0.298768 -0.211657 0.197103 -0.145259 0.178241 0.044529 -0.014378 0.102974 -0.313549 -0.170169 -0.052660 0.085669 -0.016134 0.190578 0.007775 0.064211 -0.203503 -0.093511 0.115160 -0.128307 0.695343 -0.175678 0.176156 -0.020499 -0.330749 -0.006029 0.325691 0.100716 0.405533 0.123968 -0.043415 0.154551 -0.178293 -0.274625 -0.263403 0.223379 0.087888 -0.041058 -0.036139 0.265757 -0.380131 -0.068412 -0.104798 0.010673 0.288053 -0.400085 0.139317 0.052833 0.192728 0.262120 -0.278361 -0.263609 -0.235689 -0.023509 -0.101435 0.028104 -0.241436 -0.386443 -0.350590 -0.219788 0.043643 0.038428 0.124631 -0.015029 -0.115663 -0.069357 0.154414 -0.214919 -0.107786 0.120156 0.160969 0.094014 0.054854 -0.487338 0.240515 0.043061 -0.114927 -0.082080 0.003659 0.005908 0.271190 -0.212817 0.167377 0.120233 0.390788 -0.239378 0.206660 0.048208 0.096580 0.245206 0.072061 -0.146157 -0.158614 -0.103721 -0.002656 -0.165380 -0.000305 0.145375 -0.111586 -0.152512 0.020785 -0.058938 -0.024851 -0.162629 -0.211273 0.308319 -0.116730 -0.029577 0.184224 0.278512 -0.070911 0.244896 0.179254 0.295526 -0.275426 -0.226811 -0.131706 0.049148 -0.168745 0.110452 -0.057429 0.072610 -0.067791 0.125296 -0.217222 0.080274 0.189931 -0.297528 -0.095268 0.200307 0.265523 0.019948 -0.215353 0.425628 0.149481 -0.212728 0.257297 0.329149 -0.195576 -0.054758 -0.291214 0.149368 -0.064603 -0.095100 0.085085 -0.096829 0.021664 -0.062992 -0.040530 -0.053622 -0.114848 0.010356 0.159831 -0.023822 -0.086038 -0.020636 -0.155431 -0.224654 -0.009681 -0.186644 -0.004166 -0.040275 -0.062499 -0.023522 0.038252 -0.144065 0.125460 0.093388 -0.159162 -0.038111 0.044944 -0.177867 0.040578 0.140724 0.229741 0.083901 -0.143318 -0.229513 0.055566 0.089797 -0.210382 -0.038276 0.126093 -0.058074 0.116839 0.114269 -0.014518 0.040718 0.322773 -0.022735 -0.278050 -0.030791 0.001433 -0.318674 0.133179 0.060201 0.141850 -0.220190 0.108609 0.114062 0.018941 0.087749 -0.027251 0.088503 0.007273 -0.018544 -0.045814 -0.368495 0.051448 -0.073344 -0.251053 -0.105352 0.249572 0.341352 -0.129698 0.229324 -0.087905 -0.247723 -0.234100 -0.088682 -0.116738 -0.240558 0.536865 0.041160 0.193799 -0.363658 -0.082587 0.084297 0.151910 0.025860 0.286017 -0.119794 0.140015 0.284570 0.258165 -0.089718 0.119403 -0.080911 -0.047844 -0.200162 -0.034134 -0.121514 0.056757 -0.235290 -0.033392 0.035868 0.040037 -0.179085 0.058067 -0.008662 -0.194272 -0.256445 -0.047421 0.192296 -0.188481 0.183337 0.162616 -0.198464 0.127368 0.142794 -0.439136 -0.031052 0.450608 -0.332302 -0.136872 0.045414 -0.226848 0.253824 0.247955 -0.070067 -0.036285 -0.075583 -0.262964 -0.106737 0.036037 -0.095852 0.424977 -0.319433 -0.325257 0.045243 0.172097 -0.224738 -0.117636 -0.423201 -0.014960 -0.030486 0.152938 -0.180406 0.061532 0.065463 0.319338
G#3 0.000298 0.061709 -0.108704 -0.176208 0.114623 -0.095009 0.047803 -0.294770 0.113207 0.180449 0.195814 -0.018062 0.177772 -0.204373 0.010452 -0.029964 -0.187932 0.133399 -0.295682 -0.197170 -0.119672 0.163988 0.101889 0.074371 -0.025153 0.092555 -0.129658 0.006146 0.041543 0.318985 -0.053982 0.101867 -0.155434 0.121965 -0.006453 0.070003 0.321845 0.288272 0.291529 -0.077973 -0.108917 0.126799 -0.019341 0.121010 -0.026190 0.009243 0.108872 -0.128126 0.108571 -0.002017 -0.029767 -0.082625 0.140763 0.318596 -0.318365 0.361988 0.229704 0.085278 0.469735 -0.186395 -0.252007 -0.155667 -0.201103 0.041693 -0.075592 -0.158247 -0.272714 -0.079556 -0.010104 0.011524 0.084450 -0.003116 0.390982 -0.180113 -0.299229 0.016284 0.187620 -0.156695 -0.125597 -0.373085 -0.006200 0.219585 -0.442828 0.113863 0.210159 0.017150 -0.088497 -0.044158 -0.081751 0.335759 0.092944 0.264678 0.271153 0.225206 -0.532182 0.387866 0.202602 0.411284 0.077013 0.054542 -0.251011 0.059886 -0.047078 -0.254158 -0.074220 0.037292 -0.087457 -0.244956 -0.131439 0.311532 -0.349877 0.100565 -0.330322 -0.093792 0.082239 -0.345242 0.377263 0.188043 0.053611 -0.074810 0.299583 0.214104 0.352957 -0.346923 -0.298024 0.131026 -0.107665 -0.245580 0.292245 0.200566 0.189595 -0.031249 0.099645 0.128599 0.082496 -0.095313 -0.183649 -0.320645 0.004741 0.451618 -0.259222 -0.013912 0.484770 0.029493 0.068136 -0.046563 0.235943 -0.397314 0.117476 0.036887 -0.120503 0.263991 -0.167786 0.110419 -0.174135 0.158381 0.215406 0.288972 -0.323751 0.488593 0.024584 0.150304 0.207157 -0.018753 -0.311475 -0.226135 0.134780 -0.131466 -0.232614 0.110038 -0.184633 0.138726 -0.049830 0.067642 0.168307 0.287181 0.150776 0.043460 0.046458 0.175098 -0.521950 0.033684 0.041736 0.135579 -0.197179 0.058260 0.004883 0.188196 -0.026060 -0.040342 -0.153024 0.053379 -0.241472 0.104506 0.237366 0.267130 0.140144 -0.014331 -0.117497 -0.326550 -0.327465 -0.076638 -0.070021 0.026849 0.173785 0.237149 0.137375 -0.086984 -0.044517 -0.164319 -0.453873 0.162355 -0.032392 -0.440814 -0.017821 0.137506 -0.269255 0.227821 0.180747 0.030181 -0.288567 0.073689 0.287538 0.118312 -0.146493 -0.195394 -0.211054 -0.179623 -0.282026 0.257620 -0.110245 -0.125208 0.322074 0.139392 -0.390320 0.222007 0.372231 0.287890 -0.141093 0.139143 -0.245215 -0.006192 -0.105281 0.141521 -0.003315 -0.103762 -0.160815 0.021054 0.113076 -0.238733 -0.254994 0.011860 -0.084836 -0.047626 -0.002273 -0.131230 -0.247269 0.144603 0.279203 0.334011 -0.178665 0.172167 0.305594 0.026605 0.072387 0.375310 -0.186441 0.056384 0.134774 -0.325375 -0.159407 0.045998 -0.189857 -0.366359 0.048347 -0.178583 0.092296 -0.150773 0.200860 0.046953 -0.020812 -0.222278 -0.041217 0.068941 0.025242 0.278242 0.023144 -0.106999 0.010514 0.135398 -0.172634 0.008597 -0.111991 -0.327932 0.076571 0.277994 0.234833 -0.080681 -0.108719 -0.159234
E-3 0.316073 0.280137 -0.267281 -0.562212 -0.008135 0.087923 0.118734 0.038481 0.339153 0.131435 0.068388 0.256316 0.142332 -0.174167 0.142022 -0.090136 0.032374 -0.274083 -0.283976 0.137826 0.063782 0.231902 0.004287 -0.010231 -0.060709 0.156486 -0.043101 -0.178720 -0.065900 0.410013 -0.087035 0.011262 -0.087339 0.138429 0.074769 0.316775 0.074717 0.135291 0.134293 -0.155315 -0.287888 -0.060340 -0.016378 0.139383 -0.227581 0.038372 0.001503 0.022129 0.258739 -0.135570 0.016112 -0.071155 0.178131 0.350977 -0.518458 0.211469 -0.000771 0.123552 0.317661 -0.125607 -0.275482 -0.087223 -0.158702 -0.182097 -0.038457 -0.135895 -0.316204 -0.136925 0.020826 -0.058707 -0.030776 0.053910 0.063540 -0.383497 -0.140973 0.021758 -0.096995 -0.094173 -0.186476 -0.287375 -0.129102 0.178695 -0.394561 -0.146954 -0.026964 0.029095 -0.007613 -0.084005 0.214155 0.240247 0.119699 -0.008870 0.304677 -0.035163 -0.521701 0.067761 0.076711 0.262261 0.001596 0.049605 -0.251854 0.099526 0.170395 -0.179066 -0.293470 0.070297 -0.071612 -0.159924 -0.362088 0.285710 -0.424109 0.130843 -0.401875 0.032055 0.016061 -0.098797 0.127498 0.063034 0.025897 -0.165911 0.310482 0.201238 0.102068 -0.334091 -0.280426 0.152140 -0.326683 -0.073180 -0.003434 -0.049924 0.236868 -0.080688 0.187997 0.013291 0.181191 0.004845 0.102191 -0.150789 -0.138965 0.254323 -0.120517 -0.116490 0.527139 0.332292 0.148998 0.206655 0.326598 -0.339587 0.148650 -0.141683 -0.004422 0.218941 -0.026060 0.213480 -0.047161 -0.130495 -0.193518 0.036836 -0.279826 0.186014 -0.086329 0.259708 0.228286 -0.222010 -0.155413 -0.192998 0.019302 -0.051731 -0.249937 0.079608 -0.185635 0.210334 -0.178335 -0.249792 0.153474 0.295466 0.242624 -0.164326 -0.184877 -0.039174 -0.408267 -0.133726 0.038387 0.257082 -0.233028 0.257762 -0.053487 0.000377 -0.108402 0.010633 -0.098229 0.008371 -0.368390 -0.053011 0.105222 0.260233 -0.203001 -0.085968 0.090900 -0.293789 -0.117416 -0.198446 -0.079227 -0.213411 -0.023852 0.256745 0.025121 0.054032 -0.136984 -0.298534 -0.570490 0.128738 -0.251997 -0.290658 -0.084832 0.122248 -0.234146 0.204819 0.033016 -0.081249 -0.454410 0.352549 0.204822 -0.062768 -0.059442 0.010545 -0.121510 -0.518346 -0.029350 0.098908 0.035599 0.080272 0.282753 0.218541 -0.526071 0.236323 0.151378 0.232905 -0.291042 0.097281 -0.370330 0.220606 -0.190268 0.243067 -0.066766 -0.020620 -0.291285 -0.163304 -0.232896 -0.365128 0.000218 0.149837 0.114295 -0.093341 -0.165966 -0.268966 -0.386067 0.184534 0.245869 0.282773 -0.793592 -0.029937 0.528243 -0.115916 0.103617 0.618639 -0.125714 -0.184541 -0.024257 -0.341938 -0.032528 0.488953 -0.071770 -0.055730 0.290644 -0.446663 0.207633 -0.117065 0.246995 -0.064892 -0.204299 -0.084891 -0.066509 0.120038 -0.029141 0.269658 -0.043036 0.022857 -0.122851 -0.106148 -0.152247 -0.102521 -0.264660 -0.077851 -0.054413 0.097415 -0.099872 0.063438 0.141002 -0.117683
